{"learner":{"attributes":{"scikit_learn":"{\"_estimator_type\": \"regressor\"}"},"feature_names":["lag_1_day","lag_2_day","lag_3_day","temperature_2m_mean","precipitation_sum","wind_speed_10m_max","wind_direction_10m_dominant"],"feature_types":["float","float","float","float","float","float","float"],"gradient_booster":{"model":{"gbtree_model_param":{"num_parallel_tree":"1","num_trees":"100"},"iteration_indptr":[0,1,2,3,4,5,6,7,8,9,10,11,12,13,14,15,16,17,18,19,20,21,22,23,24,25,26,27,28,29,30,31,32,33,34,35,36,37,38,39,40,41,42,43,44,45,46,47,48,49,50,51,52,53,54,55,56,57,58,59,60,61,62,63,64,65,66,67,68,69,70,71,72,73,74,75,76,77,78,79,80,81,82,83,84,85,86,87,88,89,90,91,92,93,94,95,96,97,98,99,100],"tree_info":[0,0,0,0,0,0,0,0,0,0,0,0,0,0,0,0,0,0,0,0,0,0,0,0,0,0,0,0,0,0,0,0,0,0,0,0,0,0,0,0,0,0,0,0,0,0,0,0,0,0,0,0,0,0,0,0,0,0,0,0,0,0,0,0,0,0,0,0,0,0,0,0,0,0,0,0,0,0,0,0,0,0,0,0,0,0,0,0,0,0,0,0,0,0,0,0,0,0,0,0],"trees":[{"base_weights":[-6.9754464E-7,-4.9296207E0,3.193651E0,-1.4859892E1,-2.975608E0,1.2479025E0,6.3052063E0,4.794363E0,-1.5460177E1,3.4215993E-1,-3.8739421E0,5.059596E0,2.785963E-1,8.521425E0,7.821475E-1,-1.7246655E1,-8.035372E0,-1.0859046E0,1.9802015E1,-6.056822E0,-2.830036E0,-2.556288E-1,5.5628595E0,9.6607107E-1,-2.0490398E0,7.392795E0,1.5963863E1,-6.340368E-2,8.717115E0,-1.7579319E1,-8.028187E0,-9.880845E0,-1.6300659E0,3.9643955E0,-2.5682452E0,2.0094364E1,-3.030066E0,-7.335169E0,-4.341113E0,1.396251E-1,-3.7199922E0,2.4718132E0,-2.0313187E0,6.865115E0,3.5063486E0,-4.7669163E-1,2.2044933E0,-2.395143E0,5.471813E0,6.93938E0,1.6217115E1,1.675565E1,4.3082786E0,-7.317928E0,6.629545E-1,3.4686813E0,4.8924837E0,-5.4337034E0,-3.309664E0,1.4943627E0,-4.2075167E0,-3.2853353E0,4.4436267E-1,-9.834561E-1,7.4436265E-1,-1.1334561E0,1.69568E0,-1.0091349E0,2.4343874E-1,2.9436266E-1,-1.2834561E0,-5.593956E-1,-2.3475964E0,-1.4959929E0,-9.664046E-3,7.641951E-1,-5.787292E-1,-1.5160079E0,-8.7752455E-1,-7.556374E-1,1.4924836E0,-1.208456E0,3.9248356E-1,1.8081142E0,4.0109806E0,-2.593956E-1,1.2791011E0,2.0942406E-1,-1.2980078E0,5.3332305E-1,2.9151347E0,-9.5963836E-1,5.0381637E-1,-1.5563737E-1,2.2924836E0,-2.2843157E-1,2.225832E0,5.490605E0,1.9924835E0,5.434289E0,2.3909802E0,-3.0563736E-1,2.2443628E0,-5.63736E-3,-2.5593958E0,-7.377641E-1,7.3564255E-1,1.641544E0,-1.0751649E-1],"categories":[],"categories_nodes":[],"categories_segments":[],"categories_sizes":[],"default_left":[0,0,0,0,0,0,0,0,0,0,0,0,0,0,0,0,0,0,0,0,0,0,0,0,0,0,0,0,0,0,0,0,0,0,0,0,0,0,0,0,0,0,0,0,0,0,0,0,0,0,0,0,0,0,0,0,0,0,0,0,0,0,0,0,0,0,0,0,0,0,0,0,0,0,0,0,0,0,0,0,0,0,0,0,0,0,0,0,0,0,0,0,0,0,0,0,0,0,0,0,0,0,0,0,0,0,0,0,0],"id":0,"left_children":[1,3,5,7,9,11,13,-1,15,17,19,21,23,25,27,29,31,33,35,37,39,41,43,45,47,49,51,53,55,57,59,61,63,65,67,-1,69,71,73,75,77,79,81,83,85,87,89,91,93,95,97,99,101,103,105,107,-1,-1,-1,-1,-1,-1,-1,-1,-1,-1,-1,-1,-1,-1,-1,-1,-1,-1,-1,-1,-1,-1,-1,-1,-1,-1,-1,-1,-1,-1,-1,-1,-1,-1,-1,-1,-1,-1,-1,-1,-1,-1,-1,-1,-1,-1,-1,-1,-1,-1,-1,-1,-1],"loss_changes":[1.9301518E4,9.30845E3,4.496533E3,1.7096387E3,1.2054329E3,1.694457E3,3.4940635E3,0E0,8.960254E2,2.4392268E3,7.074927E2,2.5019336E2,5.892496E2,1.5955322E3,5.574347E2,4.9003906E1,1.8484753E2,6.240553E2,6.6661523E3,1.918706E2,5.740217E2,4.860886E1,2.0356738E2,5.0848767E2,2.3175717E2,6.036572E2,1.6775879E2,4.0532455E2,2.6216553E2,6.078125E0,3.8192426E2,1.7430713E2,4.2013252E1,2.696564E2,1.7480536E2,0E0,2.923058E1,1.3824756E2,1.2778937E2,2.5893716E2,1.6222314E2,6.2499416E1,4.5282402E1,1.9744434E2,1.1954544E2,6.000396E2,4.73245E2,2.7060666E2,5.5958015E1,6.415078E2,3.815674E1,1.4211035E2,5.832906E1,6.183664E1,3.970604E2,4.7957794E1,0E0,0E0,0E0,0E0,0E0,0E0,0E0,0E0,0E0,0E0,0E0,0E0,0E0,0E0,0E0,0E0,0E0,0E0,0E0,0E0,0E0,0E0,0E0,0E0,0E0,0E0,0E0,0E0,0E0,0E0,0E0,0E0,0E0,0E0,0E0,0E0,0E0,0E0,0E0,0E0,0E0,0E0,0E0,0E0,0E0,0E0,0E0,0E0,0E0,0E0,0E0,0E0,0E0],"parents":[2147483647,0,0,1,1,2,2,3,3,4,4,5,5,6,6,8,8,9,9,10,10,11,11,12,12,13,13,14,14,15,15,16,16,17,17,18,18,19,19,20,20,21,21,22,22,23,23,24,24,25,25,26,26,27,27,28,28,29,29,30,30,31,31,32,32,33,33,34,34,36,36,37,37,38,38,39,39,40,40,41,41,42,42,43,43,44,44,45,45,46,46,47,47,48,48,49,49,50,50,51,51,52,52,53,53,54,54,55,55],"right_children":[2,4,6,8,10,12,14,-1,16,18,20,22,24,26,28,30,32,34,36,38,40,42,44,46,48,50,52,54,56,58,60,62,64,66,68,-1,70,72,74,76,78,80,82,84,86,88,90,92,94,96,98,100,102,104,106,108,-1,-1,-1,-1,-1,-1,-1,-1,-1,-1,-1,-1,-1,-1,-1,-1,-1,-1,-1,-1,-1,-1,-1,-1,-1,-1,-1,-1,-1,-1,-1,-1,-1,-1,-1,-1,-1,-1,-1,-1,-1,-1,-1,-1,-1,-1,-1,-1,-1,-1,-1,-1,-1],"split_conditions":[2E1,9E0,2.8E1,8.435069E0,1.9916664E0,1.1720751E1,1.9770523E1,4.794363E0,1.1E1,1.3200003E1,1.7E1,1.2E1,5.7E0,1.6368748E1,1.6466667E1,1.4700002E1,2.6383972E1,1.3698934E1,1.3E1,2.5336256E2,1.3513193E1,9E0,8.943749E0,1.8741875E2,1.5760415E1,4.6E1,4.3E1,1.2E1,3.6E1,8E0,2E0,1.37229185E1,2E1,1.4E1,2.9E1,2.0094364E1,1.4999998E1,3.9645834E0,2.3E1,1.0454165E1,2.125857E2,1.7E1,1.9773067E2,7.6708336E0,1.1008332E1,2.0192118E1,1.69125E1,2.9E1,2E1,1.7E1,7.6708336E0,1.8430452E1,3.1E1,3E1,2.3518172E2,2.5E1,4.8924837E0,-5.4337034E0,-3.309664E0,1.4943627E0,-4.2075167E0,-3.2853353E0,4.4436267E-1,-9.834561E-1,7.4436265E-1,-1.1334561E0,1.69568E0,-1.0091349E0,2.4343874E-1,2.9436266E-1,-1.2834561E0,-5.593956E-1,-2.3475964E0,-1.4959929E0,-9.664046E-3,7.641951E-1,-5.787292E-1,-1.5160079E0,-8.7752455E-1,-7.556374E-1,1.4924836E0,-1.208456E0,3.9248356E-1,1.8081142E0,4.0109806E0,-2.593956E-1,1.2791011E0,2.0942406E-1,-1.2980078E0,5.3332305E-1,2.9151347E0,-9.5963836E-1,5.0381637E-1,-1.5563737E-1,2.2924836E0,-2.2843157E-1,2.225832E0,5.490605E0,1.9924835E0,5.434289E0,2.3909802E0,-3.0563736E-1,2.2443628E0,-5.63736E-3,-2.5593958E0,-7.377641E-1,7.3564255E-1,1.641544E0,-1.0751649E-1],"split_indices":[0,0,0,5,3,5,5,0,1,4,2,2,4,3,3,4,5,5,0,6,5,2,3,6,3,0,2,2,0,0,0,3,1,0,2,0,4,3,1,3,6,1,6,3,3,5,3,2,1,1,3,5,0,0,6,2,0,0,0,0,0,0,0,0,0,0,0,0,0,0,0,0,0,0,0,0,0,0,0,0,0,0,0,0,0,0,0,0,0,0,0,0,0,0,0,0,0,0,0,0,0,0,0,0,0,0,0,0,0],"split_type":[0,0,0,0,0,0,0,0,0,0,0,0,0,0,0,0,0,0,0,0,0,0,0,0,0,0,0,0,0,0,0,0,0,0,0,0,0,0,0,0,0,0,0,0,0,0,0,0,0,0,0,0,0,0,0,0,0,0,0,0,0,0,0,0,0,0,0,0,0,0,0,0,0,0,0,0,0,0,0,0,0,0,0,0,0,0,0,0,0,0,0,0,0,0,0,0,0,0,0,0,0,0,0,0,0,0,0,0,0],"sum_hessian":[1.224E3,4.81E2,7.43E2,7.8E1,4.03E2,4.58E2,2.85E2,1E0,7.7E1,8.6E1,3.17E2,9.2E1,3.66E2,2.03E2,8.2E1,6.1E1,1.6E1,8.1E1,5E0,1.01E2,2.16E2,8E0,8.4E1,2.83E2,8.3E1,1.78E2,2.5E1,7.5E1,7E0,5.8E1,3E0,1.2E1,4E0,1.8E1,6.3E1,1E0,4E0,5.6E1,4.5E1,5E1,1.66E2,3E0,5E0,5E1,3.4E1,1.31E2,1.52E2,8E1,3E0,1.71E2,7E0,2.3E1,2E0,6E0,6.9E1,5E0,2E0,5.2E1,6E0,1E0,2E0,1.1E1,1E0,3E0,1E0,3E0,1.5E1,5.1E1,1.2E1,1E0,3E0,5E0,5.1E1,3.9E1,6E0,2.3E1,2.7E1,6E1,1.06E2,1E0,2E0,3E0,2E0,4.6E1,4E0,5E0,2.9E1,1.01E2,3E1,1.45E2,7E0,6.7E1,1.3E1,1E0,2E0,1E1,1.61E2,5E0,2E0,1.9E1,4E0,1E0,1E0,1E0,5E0,2.5E1,4.4E1,3E0,2E0],"tree_param":{"num_deleted":"0","num_feature":"7","num_nodes":"109","size_leaf_vector":"1"}},{"base_weights":[2.9749146E-2,-9.043617E0,9.41946E-1,-1.31769285E1,-6.74304E0,-1.1859512E0,3.0950298E0,-5.7107677E0,-4.308408E0,6.903067E0,-7.2179747E0,2.0218616E0,-1.588569E0,4.4635425E0,-1.0304127E-1,-8.073905E0,1.2702084E0,4.075208E0,-9.6882796E-1,-9.475083E0,-5.0651627E0,4.085611E0,-1.0721513E0,-1.7979686E0,3.796155E0,3.0303981E0,7.7170897E0,-4.3696132E-1,5.8076625E0,-2.8703732E0,-9.058171E-2,-1.0493892E1,-5.47907E0,-6.2575173E0,-1.4612123E0,6.166663E0,2.1072984E0,2.8790693E0,-2.1500165E0,-2.6836603E0,-7.1714014E-1,-2.2933521E0,3.703798E1,5.0665727E0,1.884459E0,6.1499014E0,1.1408088E1,-2.1924114E0,6.4909333E-1,1.1382267E1,-4.00616E0,-3.2293594E0,-5.591878E-1,-1.880684E0,1.2599145E-1,-1.3218247E0,-2.6659756E0,7.40167E-2,-1.8293837E0,-6.4229167E-1,2.0343862E0,2.7139714E-1,1.0830909E0,2.2244646E-1,1.1287464E0,-8.985993E-1,6.574209E-1,5.3052884E-1,-8.763877E-1,-1.256375E-1,-1.8880333E0,-8.7637466E-1,1.162949E0,1.708021E1,-4.1311887E-1,1.3256934E0,2.7856364E0,1.1472534E0,2.359039E-1,1.6324719E0,3.6862102E0,3.5830762E0,-9.395122E-1,1.1804168E0,-8.7970996E-1,1.2365338E0,-1.739433E-1,9.926957E-1,4.3774986E0,9.3401617E-1,-2.2251413E0],"categories":[],"categories_nodes":[],"categories_segments":[],"categories_sizes":[],"default_left":[0,0,0,0,0,0,0,0,0,0,0,0,0,0,0,0,0,0,0,0,0,0,0,0,0,0,0,0,0,0,0,0,0,0,0,0,0,0,0,0,0,0,0,0,0,0,0,0,0,0,0,0,0,0,0,0,0,0,0,0,0,0,0,0,0,0,0,0,0,0,0,0,0,0,0,0,0,0,0,0,0,0,0,0,0,0,0,0,0,0,0],"id":1,"left_children":[1,3,5,7,9,11,13,15,-1,17,19,21,23,25,27,29,-1,-1,-1,31,33,35,37,39,41,43,45,47,49,-1,-1,51,53,55,57,59,61,63,65,67,69,71,73,75,77,79,81,83,85,87,89,-1,-1,-1,-1,-1,-1,-1,-1,-1,-1,-1,-1,-1,-1,-1,-1,-1,-1,-1,-1,-1,-1,-1,-1,-1,-1,-1,-1,-1,-1,-1,-1,-1,-1,-1,-1,-1,-1,-1,-1],"loss_changes":[1.0147473E4,9.761553E2,5.107508E3,2.6286816E2,5.294209E2,7.2775586E2,2.4250962E3,1.9869156E2,0E0,2.4695299E2,3.018645E2,4.066522E2,5.694772E2,1.7857817E3,3.3214603E2,6.6779236E1,0E0,0E0,0E0,8.092334E1,1.5844672E2,1.4344989E2,1.1692103E2,4.585277E2,3.9310405E3,6.2278516E2,6.1241016E2,3.0455896E2,5.379728E2,0E0,0E0,4.0660645E1,4.456839E1,1.02003784E2,8.8616104E1,1.0642786E2,3.4692993E1,8.540432E0,8.363114E1,2.8446692E2,3.60047E2,7.718266E1,2.3713247E3,2.2398413E2,3.697481E2,3.0266162E2,3.0213037E2,2.881E2,4.248821E2,1.0717847E2,1.2023088E2,0E0,0E0,0E0,0E0,0E0,0E0,0E0,0E0,0E0,0E0,0E0,0E0,0E0,0E0,0E0,0E0,0E0,0E0,0E0,0E0,0E0,0E0,0E0,0E0,0E0,0E0,0E0,0E0,0E0,0E0,0E0,0E0,0E0,0E0,0E0,0E0,0E0,0E0,0E0,0E0],"parents":[2147483647,0,0,1,1,2,2,3,3,4,4,5,5,6,6,7,7,9,9,10,10,11,11,12,12,13,13,14,14,15,15,19,19,20,20,21,21,22,22,23,23,24,24,25,25,26,26,27,27,28,28,31,31,32,32,33,33,34,34,35,35,36,36,37,37,38,38,39,39,40,40,41,41,42,42,43,43,44,44,45,45,46,46,47,47,48,48,49,49,50,50],"right_children":[2,4,6,8,10,12,14,16,-1,18,20,22,24,26,28,30,-1,-1,-1,32,34,36,38,40,42,44,46,48,50,-1,-1,52,54,56,58,60,62,64,66,68,70,72,74,76,78,80,82,84,86,88,90,-1,-1,-1,-1,-1,-1,-1,-1,-1,-1,-1,-1,-1,-1,-1,-1,-1,-1,-1,-1,-1,-1,-1,-1,-1,-1,-1,-1,-1,-1,-1,-1,-1,-1,-1,-1,-1,-1,-1,-1],"split_conditions":[1.1E1,5E0,2.3E1,3.70625E0,8.435069E0,1.0296251E1,1.961587E1,1.02E1,-4.308408E0,6E0,1.1E1,1.1639585E1,3.5E1,3.2E1,4.5E1,3.539583E0,1.2702084E0,4.075208E0,-9.6882796E-1,9E0,2.6917725E2,2E1,6.9899354E0,1.9E1,1.04E1,1.1928989E1,1.3104165E1,2.3675986E2,2.2691425E1,-2.8703732E0,-9.058171E-2,2.9239825E2,2.3E1,1.2099999E1,3.164321E2,4E0,9.107359E0,1.2068751E1,2.8E1,-1.2E0,3.7E1,2.2E1,1.3E1,3E1,1E-1,4.6E1,3.4831064E2,-2.3916667E0,2.1999998E0,4.2E1,4.9E1,-3.2293594E0,-5.591878E-1,-1.880684E0,1.2599145E-1,-1.3218247E0,-2.6659756E0,7.40167E-2,-1.8293837E0,-6.4229167E-1,2.0343862E0,2.7139714E-1,1.0830909E0,2.2244646E-1,1.1287464E0,-8.985993E-1,6.574209E-1,5.3052884E-1,-8.763877E-1,-1.256375E-1,-1.8880333E0,-8.7637466E-1,1.162949E0,1.708021E1,-4.1311887E-1,1.3256934E0,2.7856364E0,1.1472534E0,2.359039E-1,1.6324719E0,3.6862102E0,3.5830762E0,-9.395122E-1,1.1804168E0,-8.7970996E-1,1.2365338E0,-1.739433E-1,9.926957E-1,4.3774986E0,9.3401617E-1,-2.2251413E0],"split_indices":[0,2,0,3,5,5,5,4,0,0,1,3,1,0,1,3,0,0,0,0,6,2,5,0,4,5,3,6,5,0,0,6,2,3,6,2,5,3,2,3,2,0,0,0,4,0,6,3,4,0,1,0,0,0,0,0,0,0,0,0,0,0,0,0,0,0,0,0,0,0,0,0,0,0,0,0,0,0,0,0,0,0,0,0,0,0,0,0,0,0,0],"split_type":[0,0,0,0,0,0,0,0,0,0,0,0,0,0,0,0,0,0,0,0,0,0,0,0,0,0,0,0,0,0,0,0,0,0,0,0,0,0,0,0,0,0,0,0,0,0,0,0,0,0,0,0,0,0,0,0,0,0,0,0,0,0,0,0,0,0,0,0,0,0,0,0,0,0,0,0,0,0,0,0,0,0,0,0,0,0,0,0,0,0,0],"sum_hessian":[1.224E3,1.11E2,1.113E3,3.8E1,7.3E1,5.6E2,5.53E2,6E0,3.2E1,2E0,7.1E1,6.2E1,4.98E2,3.87E2,1.66E2,5E0,1E0,1E0,1E0,3.3E1,3.8E1,3.7E1,2.5E1,4.8E2,1.8E1,2.7E2,1.17E2,1.58E2,8E0,4E0,1E0,2.5E1,8E0,2.8E1,1E1,1.7E1,2E1,5E0,2E1,2.63E2,2.17E2,1.6E1,2E0,9.6E1,1.74E2,8.4E1,3.3E1,6E1,9.8E1,5E0,3E0,2.4E1,1E0,7E0,1E0,1.8E1,1E1,8E0,2E0,1E0,1.6E1,1.2E1,8E0,2E0,3E0,1.7E1,3E0,1.3E1,2.5E2,2.07E2,1E1,1.5E1,1E0,1E0,1E0,8.5E1,1.1E1,6.2E1,1.12E2,7.7E1,7E0,3.2E1,1E0,6E0,5.4E1,2.5E1,7.3E1,2E0,3E0,1E0,2E0],"tree_param":{"num_deleted":"0","num_feature":"7","num_nodes":"91","size_leaf_vector":"1"}},{"base_weights":[3.9739247E-2,-6.457132E0,6.928899E-1,-9.263666E0,-4.6408734E0,-1.904678E-1,3.2509692E0,-5.1188594E-1,-9.678097E0,5.867607E0,-5.036235E0,-1.0847702E0,8.2387114E-1,4.1608357E0,-1.2347287E0,1.0796771E0,-1.3100258E0,-9.924393E0,2.6060486E-2,3.463927E0,-8.2350373E-1,-2.5730705E0,-4.421198E0,-1.2755784E0,4.4192185E0,2.3246593E0,1.6976492E-1,3.4698036E0,8.663217E0,4.4554324E0,-2.6264007E0,-3.0486865E0,-3.6029222E0,-1.7448561E0,-4.9863997E0,1.361118E0,-1.5667533E0,-2.1660428E0,3.1482279E1,2.6070552E0,-2.5257697E0,4.4451943E-1,-2.824078E0,5.713589E0,2.409946E0,4.472445E0,7.4616833E0,-2.4898522E0,9.500597E0,-1.3425992E0,-6.3435454E0,-1.5443206E0,-7.699442E-2,-7.9127073E-1,5.4374164E-1,-1.6567854E0,-7.028666E-1,1.0089787E0,-3.3285335E-1,-7.161955E-1,-2.4579425E-1,7.8012687E-1,-1.1568074E0,1.4518177E1,-3.511511E-1,6.9545597E-1,1.9826754E0,-1.3815732E0,5.5544045E-2,-1.7300104E-1,3.6379772E-1,-4.3372503E-1,-1.4422516E0,1.083004E0,1.9845109E0,1.2780722E0,3.1788516E-1,6.1834383E-1,2.6522605E0,-1.2898926E0,-2.8874832E-1,3.3961723E0,6.0107518E-2,-4.0575508E-2,-1.4390451E0,-8.97867E-1,-2.4235504E0],"categories":[],"categories_nodes":[],"categories_segments":[],"categories_sizes":[],"default_left":[0,0,0,0,0,0,0,0,0,0,0,0,0,0,0,0,0,0,0,0,0,0,0,0,0,0,0,0,0,0,0,0,0,0,0,0,0,0,0,0,0,0,0,0,0,0,0,0,0,0,0,0,0,0,0,0,0,0,0,0,0,0,0,0,0,0,0,0,0,0,0,0,0,0,0,0,0,0,0,0,0,0,0,0,0,0,0],"id":2,"left_children":[1,3,5,7,9,11,13,15,17,19,21,23,25,27,29,-1,-1,31,-1,-1,-1,-1,33,35,37,39,41,43,45,47,49,-1,51,53,55,57,59,61,63,65,67,69,71,73,75,-1,77,79,81,83,85,-1,-1,-1,-1,-1,-1,-1,-1,-1,-1,-1,-1,-1,-1,-1,-1,-1,-1,-1,-1,-1,-1,-1,-1,-1,-1,-1,-1,-1,-1,-1,-1,-1,-1,-1,-1],"loss_changes":[5.202683E3,5.279165E2,2.517924E3,1.5100732E2,3.2037585E2,7.529009E2,1.1724138E3,6.325548E1,9.946997E1,1.7842352E2,1.10159546E2,4.6877777E2,3.8147684E2,7.1042725E2,3.997248E2,0E0,0E0,2.3539795E1,0E0,0E0,0E0,0E0,8.2059814E1,3.2995752E2,2.7414517E3,1.682143E2,2.2499489E2,4.8087402E2,1.2136841E2,3.7405615E2,1.8236618E2,0E0,1.4186947E1,4.288859E1,5.6518433E1,2.164335E2,2.341731E2,1.1474543E2,1.7132822E3,1.1415277E2,4.0313606E1,1.9680331E2,5.592726E1,1.0127319E2,3.527721E2,0E0,1.903313E2,9.6826E0,9.928906E1,1.2863487E2,3.3954315E1,0E0,0E0,0E0,0E0,0E0,0E0,0E0,0E0,0E0,0E0,0E0,0E0,0E0,0E0,0E0,0E0,0E0,0E0,0E0,0E0,0E0,0E0,0E0,0E0,0E0,0E0,0E0,0E0,0E0,0E0,0E0,0E0,0E0,0E0,0E0,0E0],"parents":[2147483647,0,0,1,1,2,2,3,3,4,4,5,5,6,6,7,7,8,8,9,9,10,10,11,11,12,12,13,13,14,14,17,17,22,22,23,23,24,24,25,25,26,26,27,27,28,28,29,29,30,30,32,32,33,33,34,34,35,35,36,36,37,37,38,38,39,39,40,40,41,41,42,42,43,43,44,44,46,46,47,47,48,48,49,49,50,50],"right_children":[2,4,6,8,10,12,14,16,18,20,22,24,26,28,30,-1,-1,32,-1,-1,-1,-1,34,36,38,40,42,44,46,48,50,-1,52,54,56,58,60,62,64,66,68,70,72,74,76,-1,78,80,82,84,86,-1,-1,-1,-1,-1,-1,-1,-1,-1,-1,-1,-1,-1,-1,-1,-1,-1,-1,-1,-1,-1,-1,-1,-1,-1,-1,-1,-1,-1,-1,-1,-1,-1,-1,-1,-1],"split_conditions":[1.1E1,5E0,2.8E1,3.3083336E0,8.435069E0,2.1E1,2.3039999E1,2E0,1.4E1,6E0,6E0,3.5E1,1.3237038E1,1.6466667E1,2.9E1,1.0796771E0,-1.3100258E0,2.9836896E2,2.6060486E-2,3.463927E0,-8.2350373E-1,-2.5730705E0,2.7979164E0,1.0296251E1,1.04E1,8.700001E0,1.09E1,1.1620809E1,1.1620809E1,5.2999997E0,9.237499E0,-3.0486865E0,3E0,7.5000005E0,1.9E1,1.1639585E1,1.9E1,1.4007655E1,1.3E1,3.164321E2,1.2799999E1,2.1839156E2,2.6E1,3E1,5E-1,4.472445E0,1.7139585E1,1.6E1,2.4E1,8.600001E0,2.4615288E1,-1.5443206E0,-7.699442E-2,-7.9127073E-1,5.4374164E-1,-1.6567854E0,-7.028666E-1,1.0089787E0,-3.3285335E-1,-7.161955E-1,-2.4579425E-1,7.8012687E-1,-1.1568074E0,1.4518177E1,-3.511511E-1,6.9545597E-1,1.9826754E0,-1.3815732E0,5.5544045E-2,-1.7300104E-1,3.6379772E-1,-4.3372503E-1,-1.4422516E0,1.083004E0,1.9845109E0,1.2780722E0,3.1788516E-1,6.1834383E-1,2.6522605E0,-1.2898926E0,-2.8874832E-1,3.3961723E0,6.0107518E-2,-4.0575508E-2,-1.4390451E0,-8.97867E-1,-2.4235504E0],"split_indices":[0,0,0,3,5,0,5,0,1,0,0,1,5,3,0,0,0,6,0,0,0,0,3,5,4,4,4,5,5,4,3,0,0,4,2,3,1,5,0,6,4,6,1,0,4,0,3,1,1,4,5,0,0,0,0,0,0,0,0,0,0,0,0,0,0,0,0,0,0,0,0,0,0,0,0,0,0,0,0,0,0,0,0,0,0,0,0],"split_type":[0,0,0,0,0,0,0,0,0,0,0,0,0,0,0,0,0,0,0,0,0,0,0,0,0,0,0,0,0,0,0,0,0,0,0,0,0,0,0,0,0,0,0,0,0,0,0,0,0,0,0,0,0,0,0,0,0,0,0,0,0,0,0,0,0,0,0,0,0,0,0,0,0,0,0,0,0,0,0,0,0,0,0,0,0,0,0],"sum_hessian":[1.224E3,1.11E2,1.113E3,4.2E1,6.9E1,8.28E2,2.85E2,2E0,4E1,2E0,6.7E1,4.4E2,3.88E2,2.37E2,4.8E1,1E0,1E0,3.9E1,1E0,1E0,1E0,8E0,5.9E1,4.26E2,1.4E1,1.17E2,2.71E2,2.07E2,3E1,9E0,3.9E1,3.7E1,2E0,1.1E1,4.8E1,4.2E1,3.84E2,1.2E1,2E0,1.11E2,6E0,2.49E2,2.2E1,6.5E1,1.42E2,3E0,2.7E1,4E0,5E0,3E1,9E0,1E0,1E0,9E0,2E0,3.9E1,9E0,2.3E1,1.9E1,1.82E2,2.02E2,3E0,9E0,1E0,1E0,1.05E2,6E0,3E0,3E0,1.07E2,1.42E2,1.4E1,8E0,2.1E1,4.4E1,5.9E1,8.3E1,6E0,2.1E1,1E0,3E0,4E0,1E0,2.3E1,7E0,4E0,5E0],"tree_param":{"num_deleted":"0","num_feature":"7","num_nodes":"87","size_leaf_vector":"1"}},{"base_weights":[4.0258694E-2,-4.5861897E0,5.0535923E-1,-6.803827E0,-3.3554597E0,-5.781559E-1,1.6016527E0,-3.1553748E0,-2.2114694E0,4.9874654E0,-3.656478E0,-8.584361E-1,1.4328053E0,2.966278E0,4.447872E-1,-4.7009654E0,9.177255E-1,2.9443378E0,-6.999782E-1,-4.9027977E0,-2.476187E0,-2.1815316E-1,-1.7720513E0,2.7664393E-1,2.0151268E1,2.187138E0,5.2451763E0,5.3897157E0,1.4826591E-1,-1.6661695E0,-6.544533E-2,-5.3779964E0,-2.3016028E0,-3.1406689E0,-2.3512335E-1,-1.2360543E-1,-2.0913157E0,-2.4112363E0,1.0668104E0,4.706775E0,-2.4481548E-1,1.2340451E1,-5.5486614E-1,1.474121E0,3.4847498E0,4.728686E0,4.2512784E0,6.175674E0,-1.00994304E-1,8.0585545E-1,-8.7467027E-1,-1.9724724E0,-1.1134347E0,-8.7640196E-1,2.125228E-1,5.557261E-1,-1.0690428E0,3.3638492E-1,-1.1321498E0,5.3776264E-2,-6.362461E-1,-1.011649E0,-2.9303423E-1,8.7856925E-1,-1.331687E0,1.8170615E-1,1.5868028E0,-1.0957181E0,1.2844124E-1,-3.1903124E-1,6.934147E-2,9.930987E-1,2.2550642E-1,1.6461244E0,4.8243028E-1,4.0250387E0,1.2646407E0,6.332885E-1,2.3990803E0,3.1352599E0,1.8988301E-1,-1.554504E0,-9.18037E-2],"categories":[],"categories_nodes":[],"categories_segments":[],"categories_sizes":[],"default_left":[0,0,0,0,0,0,0,0,0,0,0,0,0,0,0,0,0,0,0,0,0,0,0,0,0,0,0,0,0,0,0,0,0,0,0,0,0,0,0,0,0,0,0,0,0,0,0,0,0,0,0,0,0,0,0,0,0,0,0,0,0,0,0,0,0,0,0,0,0,0,0,0,0,0,0,0,0,0,0,0,0,0,0],"id":3,"left_children":[1,3,5,7,9,11,13,15,-1,17,19,21,23,25,27,29,-1,-1,-1,31,33,35,37,39,41,43,45,47,49,-1,-1,51,53,55,57,59,-1,61,63,65,67,-1,69,71,73,75,-1,77,-1,79,81,-1,-1,-1,-1,-1,-1,-1,-1,-1,-1,-1,-1,-1,-1,-1,-1,-1,-1,-1,-1,-1,-1,-1,-1,-1,-1,-1,-1,-1,-1,-1,-1],"loss_changes":[2.6382283E3,2.8285303E2,1.3241915E3,5.752307E1,2.0407806E2,3.1742792E2,8.732738E2,8.161574E1,0E0,1.2891098E2,9.377319E1,2.8800473E2,1.4876932E3,4.3952588E2,4.4055017E2,2.1729645E1,0E0,0E0,0E0,2.9648865E1,5.7338226E1,1.849335E2,3.7092755E2,1.5362111E2,1.7607784E3,1.7157977E2,2.2803442E2,7.859061E1,1.9241641E2,0E0,0E0,3.1449463E1,1.5127415E1,6.993448E1,5.2230812E1,1.745844E2,0E0,2.2552173E2,4.0251425E2,1.3520416E1,1.3915213E2,0E0,1.4450188E0,1.633288E2,2.429403E2,2.198927E2,0E0,9.416223E1,0E0,2.8357187E2,2.7272638E2,0E0,0E0,0E0,0E0,0E0,0E0,0E0,0E0,0E0,0E0,0E0,0E0,0E0,0E0,0E0,0E0,0E0,0E0,0E0,0E0,0E0,0E0,0E0,0E0,0E0,0E0,0E0,0E0,0E0,0E0,0E0,0E0],"parents":[2147483647,0,0,1,1,2,2,3,3,4,4,5,5,6,6,7,7,9,9,10,10,11,11,12,12,13,13,14,14,15,15,19,19,20,20,21,21,22,22,23,23,24,24,25,25,26,26,27,27,28,28,31,31,32,32,33,33,34,34,35,35,37,37,38,38,39,39,40,40,42,42,43,43,44,44,45,45,47,47,49,49,50,50],"right_children":[2,4,6,8,10,12,14,16,-1,18,20,22,24,26,28,30,-1,-1,-1,32,34,36,38,40,42,44,46,48,50,-1,-1,52,54,56,58,60,-1,62,64,66,68,-1,70,72,74,76,-1,78,-1,80,82,-1,-1,-1,-1,-1,-1,-1,-1,-1,-1,-1,-1,-1,-1,-1,-1,-1,-1,-1,-1,-1,-1,-1,-1,-1,-1,-1,-1,-1,-1,-1,-1],"split_conditions":[1.1E1,5E0,2.3E1,3.70625E0,8.435069E0,2.772E1,7E-1,1.02E1,-2.2114694E0,6E0,1.1E1,1.872346E1,3.5E1,1.3466666E1,8.709098E0,3.539583E0,9.177255E-1,2.9443378E0,-6.999782E-1,2.6196344E2,2.7135983E2,4.4E1,2.8E1,2.8137634E1,1.3E1,2.9E1,4.9E1,2.7747147E2,2.1129883E1,-1.6661695E0,-6.544533E-2,9.364583E0,2.3E1,1.3E1,3.164321E2,5.7E0,-2.0913157E0,2.5448326E2,2.7747147E2,2E1,1.7597345E2,1.2340451E1,1.6E1,9.119715E1,3.5083332E0,1.37229185E1,4.2512784E0,2.2E1,-1.00994304E-1,7E0,1.47913E2,-1.9724724E0,-1.1134347E0,-8.7640196E-1,2.125228E-1,5.557261E-1,-1.0690428E0,3.3638492E-1,-1.1321498E0,5.3776264E-2,-6.362461E-1,-1.011649E0,-2.9303423E-1,8.7856925E-1,-1.331687E0,1.8170615E-1,1.5868028E0,-1.0957181E0,1.2844124E-1,-3.1903124E-1,6.934147E-2,9.930987E-1,2.2550642E-1,1.6461244E0,4.8243028E-1,4.0250387E0,1.2646407E0,6.332885E-1,2.3990803E0,3.1352599E0,1.8988301E-1,-1.554504E0,-9.18037E-2],"split_indices":[0,2,0,3,5,5,4,4,0,0,1,5,1,3,5,3,0,0,0,6,6,2,2,5,0,1,0,6,5,0,0,3,2,1,6,4,0,6,6,1,6,0,0,6,3,3,0,1,0,2,6,0,0,0,0,0,0,0,0,0,0,0,0,0,0,0,0,0,0,0,0,0,0,0,0,0,0,0,0,0,0,0,0],"split_type":[0,0,0,0,0,0,0,0,0,0,0,0,0,0,0,0,0,0,0,0,0,0,0,0,0,0,0,0,0,0,0,0,0,0,0,0,0,0,0,0,0,0,0,0,0,0,0,0,0,0,0,0,0,0,0,0,0,0,0,0,0,0,0,0,0,0,0,0,0,0,0,0,0,0,0,0,0,0,0,0,0,0,0],"sum_hessian":[1.224E3,1.11E2,1.113E3,3.8E1,7.3E1,5.6E2,5.53E2,6E0,3.2E1,2E0,7.1E1,4.92E2,6.8E1,2.53E2,3E2,5E0,1E0,1E0,1E0,3.3E1,3.8E1,2.9E2,2.02E2,6.5E1,3E0,1.9E2,6.3E1,1.6E1,2.84E2,4E0,1E0,2.7E1,6E0,2.9E1,9E0,2.87E2,3E0,1.65E2,3.7E1,6E0,5.9E1,1E0,2E0,1.24E2,6.6E1,6.1E1,2E0,1.4E1,2E0,1.73E2,1.11E2,1.4E1,1.3E1,5E0,1E0,2E0,2.7E1,7E0,2E0,2.5E2,3.7E1,9.8E1,6.7E1,2.8E1,9E0,1E0,5E0,9E0,5E1,1E0,1E0,3.4E1,9E1,3.1E1,3.5E1,2E0,5.9E1,5E0,9E0,2E0,1.71E2,1.2E1,9.9E1],"tree_param":{"num_deleted":"0","num_feature":"7","num_nodes":"83","size_leaf_vector":"1"}},{"base_weights":[4.460488E-2,-3.2624745E0,3.7705398E-1,4.239345E0,-3.4374108E0,-1.12716705E-1,1.7953856E0,2.5026867E0,-5.949815E-1,-4.8258624E0,-2.1999369E0,1.3486034E0,-3.2189655E-1,2.332047E0,-8.4789646E-1,-4.9186053E0,-2.830639E-2,2.0182693E0,-2.38019E0,2.140834E0,3.7973344E-1,-2.4237786E-1,-4.348677E0,2.0058806E0,8.3076935E0,-3.1305203E0,1.8685707E0,-3.1240256E0,-1.5709027E0,8.8516766E-1,2.3053551E-2,-2.792634E0,-8.844633E-1,1.2327961E0,3.7590647E0,-1.2103462E0,6.593623E-1,-3.6432084E-1,2.646357E0,-1.7069839E0,-5.62662E0,2.9097252E0,9.6502936E-1,9.254489E0,-3.160575E-1,1.7350863E0,-3.695819E0,-4.1500797E0,4.2369227E0,-1.2146901E0,7.800668E-1,-9.5392734E-1,-7.1056575E-2,2.8301784E-1,-8.54127E-1,2.4711515E-1,1.7192433E0,1.4163156E0,-3.8074395E-1,3.186557E-1,-6.609472E-1,-1.4834207E-1,4.9200854E-1,7.301938E-2,1.0489383E1,-1.0749931E0,3.8102105E-2,-1.8472916E0,-2.0677072E-1,6.0265136E-1,1.4943058E0,3.9179662E-1,-1.8755217E0,9.706974E-1,3.6694753E0,-5.826449E-1,-1.5180719E0,-1.8148792E-1,-1.9973041E0,6.961743E-1,3.7218971E0],"categories":[],"categories_nodes":[],"categories_segments":[],"categories_sizes":[],"default_left":[0,0,0,0,0,0,0,0,0,0,0,0,0,0,0,0,0,0,0,0,0,0,0,0,0,0,0,0,0,0,0,0,0,0,0,0,0,0,0,0,0,0,0,0,0,0,0,0,0,0,0,0,0,0,0,0,0,0,0,0,0,0,0,0,0,0,0,0,0,0,0,0,0,0,0,0,0,0,0,0,0],"id":4,"left_children":[1,3,5,7,9,11,13,-1,-1,15,17,19,21,23,25,27,-1,29,31,33,35,37,39,41,43,45,47,49,-1,-1,-1,51,53,55,57,-1,59,61,63,65,67,69,71,73,-1,-1,75,77,79,-1,-1,-1,-1,-1,-1,-1,-1,-1,-1,-1,-1,-1,-1,-1,-1,-1,-1,-1,-1,-1,-1,-1,-1,-1,-1,-1,-1,-1,-1,-1,-1],"loss_changes":[1.3480387E3,1.6155444E2,7.7405054E2,9.313817E1,1.7838245E2,2.5384178E2,4.0768195E2,0E0,0E0,2.1915527E1,5.042456E1,7.9014175E1,2.314143E2,4.472113E2,3.096826E2,1.2151611E1,0E0,5.2031717E0,3.3310425E1,7.91225E1,6.190869E1,2.5212616E2,3.765851E1,2.1074622E2,1.16107666E2,1.5743231E2,3.4543207E2,6.347413E1,0E0,0E0,0E0,4.3769928E1,5.2909508E1,6.5201065E1,1.02733185E2,0E0,5.538228E1,1.795079E2,2.2436133E3,2.1102102E1,1.9352509E1,2.1578027E2,2.7145154E2,1.5752777E2,0E0,0E0,5.2383545E1,5.820057E1,2.3735132E2,0E0,0E0,0E0,0E0,0E0,0E0,0E0,0E0,0E0,0E0,0E0,0E0,0E0,0E0,0E0,0E0,0E0,0E0,0E0,0E0,0E0,0E0,0E0,0E0,0E0,0E0,0E0,0E0,0E0,0E0,0E0,0E0],"parents":[2147483647,0,0,1,1,2,2,3,3,4,4,5,5,6,6,9,9,10,10,11,11,12,12,13,13,14,14,15,15,17,17,18,18,19,19,20,20,21,21,22,22,23,23,24,24,25,25,26,26,27,27,31,31,32,32,33,33,34,34,36,36,37,37,38,38,39,39,40,40,41,41,42,42,43,43,46,46,47,47,48,48],"right_children":[2,4,6,8,10,12,14,-1,-1,16,18,20,22,24,26,28,-1,30,32,34,36,38,40,42,44,46,48,50,-1,-1,-1,52,54,56,58,-1,60,62,64,66,68,70,72,74,-1,-1,76,78,80,-1,-1,-1,-1,-1,-1,-1,-1,-1,-1,-1,-1,-1,-1,-1,-1,-1,-1,-1,-1,-1,-1,-1,-1,-1,-1,-1,-1,-1,-1,-1,-1],"split_conditions":[1.1E1,8.435069E0,2.8E1,6E0,6E0,1.0296251E1,2.3039999E1,2.5026867E0,-5.949815E-1,4.2E1,-2.916667E0,8.943749E0,2.0699999E1,4.7E1,2.836471E1,3.70625E0,-2.830639E-2,1E1,8.600001E0,8E-1,1.4E1,3.6E1,2.2E1,7E-1,2.989305E2,8.360275E1,2E1,1.3900002E1,-1.5709027E0,8.8516766E-1,2.3053551E-2,2.3E1,1.3200003E1,6.777083E0,6.4E0,-1.2103462E0,3.1934476E2,3.0879657E2,1.04E1,8.339583E0,4.81E1,1.3104165E1,4.4E1,1E-1,-3.160575E-1,1.7350863E0,7.443749E0,3.163087E1,7.6708336E0,-1.2146901E0,7.800668E-1,-9.5392734E-1,-7.1056575E-2,2.8301784E-1,-8.54127E-1,2.4711515E-1,1.7192433E0,1.4163156E0,-3.8074395E-1,3.186557E-1,-6.609472E-1,-1.4834207E-1,4.9200854E-1,7.301938E-2,1.0489383E1,-1.0749931E0,3.8102105E-2,-1.8472916E0,-2.0677072E-1,6.0265136E-1,1.4943058E0,3.9179662E-1,-1.8755217E0,9.706974E-1,3.6694753E0,-5.826449E-1,-1.5180719E0,-1.8148792E-1,-1.9973041E0,6.961743E-1,3.7218971E0],"split_indices":[0,5,0,0,0,5,5,0,0,1,3,3,4,0,5,3,0,0,4,4,0,1,2,4,6,6,2,4,0,0,0,2,4,3,4,0,6,6,4,3,4,3,0,4,0,0,3,5,3,0,0,0,0,0,0,0,0,0,0,0,0,0,0,0,0,0,0,0,0,0,0,0,0,0,0,0,0,0,0,0,0],"split_type":[0,0,0,0,0,0,0,0,0,0,0,0,0,0,0,0,0,0,0,0,0,0,0,0,0,0,0,0,0,0,0,0,0,0,0,0,0,0,0,0,0,0,0,0,0,0,0,0,0,0,0,0,0,0,0,0,0,0,0,0,0,0,0,0,0,0,0,0,0,0,0,0,0,0,0,0,0,0,0,0,0],"sum_hessian":[1.224E3,1.11E2,1.113E3,2E0,1.09E2,8.28E2,2.85E2,1E0,1E0,5E1,5.9E1,1.03E2,7.25E2,2.37E2,4.8E1,4.9E1,1E0,2E0,5.7E1,5.6E1,4.7E1,7.12E2,1.3E1,2.26E2,1.1E1,2.6E1,2.2E1,9E0,4E1,1E0,1E0,4.4E1,1.3E1,3.7E1,1.9E1,2E0,4.5E1,6.84E2,2.8E1,5E0,8E0,1.2E2,1.06E2,1E1,1E0,1E0,2.5E1,6E0,1.6E1,8E0,1E0,3.8E1,6E0,7E0,6E0,3.5E1,2E0,1.6E1,3E0,4E1,5E0,6.43E2,4.1E1,2.7E1,1E0,2E0,3E0,7E0,1E0,8.5E1,3.5E1,1.02E2,4E0,4E0,6E0,1.2E1,1.3E1,3E0,3E0,1.4E1,2E0],"tree_param":{"num_deleted":"0","num_feature":"7","num_nodes":"81","size_leaf_vector":"1"}},{"base_weights":[4.3681808E-2,-9.753546E-1,7.0380527E-1,-2.0045538E0,-1.4605172E-1,1.967349E0,3.597656E-1,3.0400248E0,-2.26546E0,-3.5628731E0,1.1421092E-1,1.7330537E0,3.18391E0,1.3880529E-1,2.725684E0,4.9918666E0,-1.1486527E0,4.6326533E-1,-2.4077704E0,-2.4150593E0,-2.5614116E0,-1.4220001E-1,3.0700467E0,5.545184E-1,2.3515477E0,-5.2869326E-1,7.3530465E-1,1.6003039E0,7.674603E0,2.5448368E0,5.0257075E-1,-1.6078455E0,3.2701676E0,-2.5400767E0,3.6268666E-2,-3.9135952E0,-9.246269E-1,2.1577021E-1,-2.1529982E0,1.7941542E1,-6.097197E-1,3.451965E-1,1.7786855E0,4.374508E0,1.7730701E0,2.4043584E0,-6.974429E-1,1.4866747E0,-6.408079E-1,2.976096E0,-1.3638585E0,8.798813E0,-1.9786206E-1,-9.856684E-1,1.2369537E0,2.503996E-2,-8.691589E-1,-6.9168094E-3,1.2297713E0,-1.0602776E0,-6.103787E-1,6.030749E-1,-4.136697E-1,-1.4734542E0,-8.417578E-2,-1.3238372E0,1.8897701E-2,1.5460047E-1,-7.3834324E-1,-8.375329E-1,1.0486425E0,7.3892264E0,-3.1891453E-1,4.881414E-1,-5.9332365E-1,4.463934E-1,-3.1198478E-1,1.9145969E0,9.0366524E-1,1.5899391E-1,8.918745E-1,2.069235E-1,-4.446141E-1,2.0941486E0,3.7868205E-1,-1.2697935E0,-8.589612E-2,6.935011E-2,1.3225887E0,-6.7415637E-1,1.5179135E0,3.2608445E0,5.173618E-1],"categories":[],"categories_nodes":[],"categories_segments":[],"categories_sizes":[],"default_left":[0,0,0,0,0,0,0,0,0,0,0,0,0,0,0,0,0,0,0,0,0,0,0,0,0,0,0,0,0,0,0,0,0,0,0,0,0,0,0,0,0,0,0,0,0,0,0,0,0,0,0,0,0,0,0,0,0,0,0,0,0,0,0,0,0,0,0,0,0,0,0,0,0,0,0,0,0,0,0,0,0,0,0,0,0,0,0,0,0,0,0,0,0],"id":5,"left_children":[1,3,5,7,9,11,13,15,17,19,21,23,-1,25,27,29,-1,31,33,-1,35,37,39,41,43,45,47,49,51,-1,53,55,57,59,61,63,65,67,69,71,73,75,-1,77,79,-1,81,83,85,87,89,91,-1,-1,-1,-1,-1,-1,-1,-1,-1,-1,-1,-1,-1,-1,-1,-1,-1,-1,-1,-1,-1,-1,-1,-1,-1,-1,-1,-1,-1,-1,-1,-1,-1,-1,-1,-1,-1,-1,-1,-1,-1],"loss_changes":[8.2473157E2,4.111028E2,3.2271588E2,2.8986218E2,2.3873154E2,3.036844E2,3.0596722E2,1.6658942E2,8.072217E1,6.476393E1,1.8991371E2,1.12407104E2,0E0,2.1420201E2,2.66189E2,1.3678282E2,0E0,6.920538E1,6.3147583E1,0E0,3.4006348E1,1.667397E2,1.1054119E3,5.9827606E1,1.1160785E2,3.717727E2,2.9460004E2,1.7533795E2,9.012714E1,0E0,8.2123665E1,1.550668E1,1.3746071E1,8.57793E1,3.3500587E1,3.1250946E1,3.1282766E1,1.5924438E2,1.3604277E2,5.346865E2,5.5239403E1,8.702505E1,0E0,4.09411E1,1.1923718E2,0E0,2.731205E2,2.1802765E2,1.2738754E2,1.1301471E2,9.08079E1,9.844299E1,0E0,0E0,0E0,0E0,0E0,0E0,0E0,0E0,0E0,0E0,0E0,0E0,0E0,0E0,0E0,0E0,0E0,0E0,0E0,0E0,0E0,0E0,0E0,0E0,0E0,0E0,0E0,0E0,0E0,0E0,0E0,0E0,0E0,0E0,0E0,0E0,0E0,0E0,0E0,0E0,0E0],"parents":[2147483647,0,0,1,1,2,2,3,3,4,4,5,5,6,6,7,7,8,8,9,9,10,10,11,11,13,13,14,14,15,15,17,17,18,18,20,20,21,21,22,22,23,23,24,24,25,25,26,26,27,27,28,28,30,30,31,31,32,32,33,33,34,34,35,35,36,36,37,37,38,38,39,39,40,40,41,41,43,43,44,44,46,46,47,47,48,48,49,49,50,50,51,51],"right_children":[2,4,6,8,10,12,14,16,18,20,22,24,-1,26,28,30,-1,32,34,-1,36,38,40,42,44,46,48,50,52,-1,54,56,58,60,62,64,66,68,70,72,74,76,-1,78,80,-1,82,84,86,88,90,92,-1,-1,-1,-1,-1,-1,-1,-1,-1,-1,-1,-1,-1,-1,-1,-1,-1,-1,-1,-1,-1,-1,-1,-1,-1,-1,-1,-1,-1,-1,-1,-1,-1,-1,-1,-1,-1,-1,-1,-1,-1],"split_conditions":[2E1,1.8E1,1.1620809E1,9.360001E0,1.1E1,4.6E1,1.7139585E1,1.5E0,-4.374994E-2,1.7076298E1,1.37E1,2.5E1,3.18391E0,2.3675986E2,3.3E0,1.4E1,-1.1486527E0,-5.791666E-1,1.69125E1,-2.4150593E0,1.3E1,2.7E1,1.3900002E1,1.1298495E1,7.7043357E0,7E0,5.0999994E0,1.961587E1,3.4525638E2,2.5448368E0,1.7E1,1.5E1,1.3E1,1.6830554E2,1.3E1,3.3E1,-2.3916667E0,3.0131723E2,1.37229185E1,2.5E1,2.0674158E1,1.495345E2,1.7786855E0,1.9E1,2.5E1,2.4043584E0,9.119715E1,2.3789429E2,1.4658676E1,2.3E1,3.7E1,2.6E1,-1.9786206E-1,-9.856684E-1,1.2369537E0,2.503996E-2,-8.691589E-1,-6.9168094E-3,1.2297713E0,-1.0602776E0,-6.103787E-1,6.030749E-1,-4.136697E-1,-1.4734542E0,-8.417578E-2,-1.3238372E0,1.8897701E-2,1.5460047E-1,-7.3834324E-1,-8.375329E-1,1.0486425E0,7.3892264E0,-3.1891453E-1,4.881414E-1,-5.9332365E-1,4.463934E-1,-3.1198478E-1,1.9145969E0,9.0366524E-1,1.5899391E-1,8.918745E-1,2.069235E-1,-4.446141E-1,2.0941486E0,3.7868205E-1,-1.2697935E0,-8.589612E-2,6.935011E-2,1.3225887E0,-6.7415637E-1,1.5179135E0,3.2608445E0,5.173618E-1],"split_indices":[0,2,5,5,1,0,3,4,3,5,4,0,0,6,4,2,0,3,3,0,0,1,4,5,5,2,4,5,6,0,2,2,2,6,2,2,3,6,3,2,5,6,0,2,2,0,6,6,5,1,0,1,0,0,0,0,0,0,0,0,0,0,0,0,0,0,0,0,0,0,0,0,0,0,0,0,0,0,0,0,0,0,0,0,0,0,0,0,0,0,0,0,0],"split_type":[0,0,0,0,0,0,0,0,0,0,0,0,0,0,0,0,0,0,0,0,0,0,0,0,0,0,0,0,0,0,0,0,0,0,0,0,0,0,0,0,0,0,0,0,0,0,0,0,0,0,0,0,0,0,0,0,0,0,0,0,0,0,0,0,0,0,0,0,0,0,0,0,0,0,0,0,0,0,0,0,0,0,0,0,0,0,0,0,0,0,0,0,0],"sum_hessian":[1.224E3,4.81E2,7.43E2,2.14E2,2.67E2,1.58E2,5.85E2,1E1,2.04E2,1.8E1,2.49E2,1.55E2,3E0,5.36E2,4.9E1,8E0,2E0,1E1,1.94E2,2E0,1.6E1,2.3E2,1.9E1,5.4E1,1.01E2,2.53E2,2.83E2,4.1E1,8E0,4E0,4E0,6E0,4E0,1.84E2,1E1,8E0,8E0,1.96E2,3.4E1,3E0,1.6E1,5.3E1,1E0,2.1E1,8E1,4E0,2.49E2,1.83E2,1E2,2.8E1,1.3E1,7E0,1E0,2E0,2E0,3E0,3E0,1E0,3E0,6E1,1.24E2,4E0,6E0,6E0,2E0,1E0,7E0,1.77E2,1.9E1,3.1E1,3E0,2E0,1E0,6E0,1E1,2.9E1,2.4E1,7E0,1.4E1,4E1,4E1,9E1,1.59E2,6E0,1.77E2,8E0,9.2E1,1E1,1.8E1,1.2E1,1E0,5E0,2E0],"tree_param":{"num_deleted":"0","num_feature":"7","num_nodes":"93","size_leaf_vector":"1"}},{"base_weights":[4.684325E-2,-7.775118E-1,4.670848E-1,8.445729E-1,-1.1929654E0,3.0761461E0,3.6998037E-1,2.705413E-1,8.357565E0,-1.6024626E0,6.2030344E-3,1.6898544E0,5.5411153E0,1.0287821E0,1.02969326E-1,-1.2749783E0,1.500945E0,7.807591E0,-3.8104287E-1,-2.9971404E0,-1.4022654E0,-1.1143212E0,8.931555E-1,-1.3691978E0,2.310228E0,-4.4228044E-1,7.0922494E0,3.3986768E-1,2.8058167E0,-7.1979374E-1,4.2894527E-1,-9.6607864E-2,-4.3290806E0,6.0075645E0,-1.3377213E-1,5.1931286E-1,-1.341825E0,7.5461346E-1,-9.8218936E-1,-7.1582687E-1,-1.7900395E0,1.6244187E0,-2.2902677E0,3.9008036E0,-2.1774954E-1,-6.544267E-1,-1.11394696E-1,-1.7787266E-1,3.3617594E0,-3.2533294E-1,1.2630673E-1,2.4134114E0,6.375933E-2,1.0161322E0,-1.3652192E0,-1.8330635E0,3.2373247E0,1.3297255E0,-1.3522687E0,3.337266E-1,5.064846E0,-2.4545546E-1,1.2771019E0,-2.1273363E0,-3.9176E-1,8.763741E-1,4.2878304E0,3.7830082E-1,-5.34512E-1,-4.9394894E-1,-6.4171605E-2,2.641254E-1,-4.2469606E-1,-1.4111767E0,-4.3480936E-1,-2.4219647E-1,7.5741035E-1,8.6178744E-1,-8.454613E-1,2.021967E-1,1.7499943E0,-7.977027E-1,1.7241532E-1,-3.4743163E-1,3.5651857E-1,1.2720526E0,1.6346526E-1,1.5859675E-1,1.298468E0,6.4088833E-1,-9.2199385E-1,-6.111372E-1,-1.219142E-1,2.5407343E0,6.692568E-1,-2.0858543E-1,1.2472711E0,-3.4298888E-1,-2.1693397E0,1.327688E-1,-1.0487934E0,2.3840122E0,5.8892585E-2],"categories":[],"categories_nodes":[],"categories_segments":[],"categories_sizes":[],"default_left":[0,0,0,0,0,0,0,0,0,0,0,0,0,0,0,0,0,0,0,0,0,0,0,0,0,0,0,0,0,0,0,0,0,0,0,0,0,0,0,0,0,0,0,0,0,0,0,0,0,0,0,0,0,0,0,0,0,0,0,0,0,0,0,0,0,0,0,0,0,0,0,0,0,0,0,0,0,0,0,0,0,0,0,0,0,0,0,0,0,0,0,0,0,0,0,0,0,0,0,0,0,0,0],"id":6,"left_children":[1,3,5,7,9,11,13,15,17,19,21,23,25,27,29,31,33,-1,35,37,39,41,43,45,47,49,51,53,55,57,59,61,63,65,67,-1,69,-1,-1,71,73,75,77,79,81,-1,-1,83,85,-1,-1,-1,-1,87,89,91,93,95,97,99,101,-1,-1,-1,-1,-1,-1,-1,-1,-1,-1,-1,-1,-1,-1,-1,-1,-1,-1,-1,-1,-1,-1,-1,-1,-1,-1,-1,-1,-1,-1,-1,-1,-1,-1,-1,-1,-1,-1,-1,-1,-1,-1],"loss_changes":[4.247377E2,2.8000256E2,2.0458324E2,3.64318E2,1.6205853E2,8.973416E1,1.3780542E2,1.540427E2,9.362654E2,6.448297E1,8.547266E1,4.111828E1,9.5947235E1,2.757212E2,1.5023311E2,1.2914087E2,3.323208E2,0E0,1.24690275E1,5.4015198E1,5.6480377E1,1.2610361E2,1.6122757E2,2.4320211E0,4.507534E1,2.1197176E0,5.0711243E1,1.9049397E2,1.3204214E2,2.07905E2,1.7532086E2,8.830265E1,7.4242325E1,2.6509656E2,8.0395645E1,0E0,1.0223851E0,0E0,0E0,9.061394E1,1.3017316E2,2.8309282E1,8.168898E1,7.7134476E1,7.117443E1,0E0,0E0,9.41185E0,2.7382248E1,0E0,0E0,0E0,0E0,1.882309E2,2.8766843E2,9.1892815E-1,2.8651337E2,2.2049442E2,1.4161215E2,1.6577023E2,1.1068359E2,0E0,0E0,0E0,0E0,0E0,0E0,0E0,0E0,0E0,0E0,0E0,0E0,0E0,0E0,0E0,0E0,0E0,0E0,0E0,0E0,0E0,0E0,0E0,0E0,0E0,0E0,0E0,0E0,0E0,0E0,0E0,0E0,0E0,0E0,0E0,0E0,0E0,0E0,0E0,0E0,0E0,0E0],"parents":[2147483647,0,0,1,1,2,2,3,3,4,4,5,5,6,6,7,7,8,8,9,9,10,10,11,11,12,12,13,13,14,14,15,15,16,16,18,18,19,19,20,20,21,21,22,22,23,23,24,24,25,25,26,26,27,27,28,28,29,29,30,30,31,31,32,32,33,33,34,34,36,36,39,39,40,40,41,41,42,42,43,43,44,44,47,47,48,48,53,53,54,54,55,55,56,56,57,57,58,58,59,59,60,60],"right_children":[2,4,6,8,10,12,14,16,18,20,22,24,26,28,30,32,34,-1,36,38,40,42,44,46,48,50,52,54,56,58,60,62,64,66,68,-1,70,-1,-1,72,74,76,78,80,82,-1,-1,84,86,-1,-1,-1,-1,88,90,92,94,96,98,100,102,-1,-1,-1,-1,-1,-1,-1,-1,-1,-1,-1,-1,-1,-1,-1,-1,-1,-1,-1,-1,-1,-1,-1,-1,-1,-1,-1,-1,-1,-1,-1,-1,-1,-1,-1,-1,-1,-1,-1,-1,-1,-1],"split_conditions":[1.9E1,1.9916664E0,7.24486E0,1.3200003E1,2.4E1,3.1E1,1E-1,1E0,1.3E1,3E0,8.5875E0,7.12029E1,1.7E1,1.9103117E2,3.4479163E0,2.0111729E1,1.6830554E2,7.807591E0,1.4999998E1,3.3083336E0,1.6215992E1,2.6E1,1.033125E1,2.2E1,-3.2666664E0,3.9E1,9.000001E-1,1.7015474E1,6.9166666E-1,-8.6875004E-1,4.7E1,1.7873554E1,1.6041662E-1,2.8E1,2E1,5.1931286E-1,1.9E1,7.5461346E-1,-9.8218936E-1,8.541667E0,1.7447933E1,2.2691425E1,2.2749999E0,2.7E1,2.6E1,-6.544267E-1,-1.11394696E-1,1.7304173E2,2.7896692E2,-3.2533294E-1,1.2630673E-1,2.4134114E0,6.375933E-2,1.5405519E1,8.560137E1,2.9E1,2.3789429E2,2.7E1,1.53E1,4.3E1,1.7699999E1,-2.4545546E-1,1.2771019E0,-2.1273363E0,-3.9176E-1,8.763741E-1,4.2878304E0,3.7830082E-1,-5.34512E-1,-4.9394894E-1,-6.4171605E-2,2.641254E-1,-4.2469606E-1,-1.4111767E0,-4.3480936E-1,-2.4219647E-1,7.5741035E-1,8.6178744E-1,-8.454613E-1,2.021967E-1,1.7499943E0,-7.977027E-1,1.7241532E-1,-3.4743163E-1,3.5651857E-1,1.2720526E0,1.6346526E-1,1.5859675E-1,1.298468E0,6.4088833E-1,-9.2199385E-1,-6.111372E-1,-1.219142E-1,2.5407343E0,6.692568E-1,-2.0858543E-1,1.2472711E0,-3.4298888E-1,-2.1693397E0,1.327688E-1,-1.0487934E0,2.3840122E0,5.8892585E-2],"split_indices":[0,3,5,4,2,0,4,4,0,0,3,6,1,6,3,5,6,0,4,3,5,2,3,1,3,0,4,5,3,3,0,5,3,2,1,0,1,0,0,3,5,5,3,2,2,0,0,6,6,0,0,0,0,5,6,1,6,1,4,2,4,0,0,0,0,0,0,0,0,0,0,0,0,0,0,0,0,0,0,0,0,0,0,0,0,0,0,0,0,0,0,0,0,0,0,0,0,0,0,0,0,0,0],"split_type":[0,0,0,0,0,0,0,0,0,0,0,0,0,0,0,0,0,0,0,0,0,0,0,0,0,0,0,0,0,0,0,0,0,0,0,0,0,0,0,0,0,0,0,0,0,0,0,0,0,0,0,0,0,0,0,0,0,0,0,0,0,0,0,0,0,0,0,0,0,0,0,0,0,0,0,0,0,0,0,0,0,0,0,0,0,0,0,0,0,0,0,0,0,0,0,0,0,0,0,0,0,0,0],"sum_hessian":[1.224E3,4.13E2,8.11E2,8.4E1,3.29E2,2.8E1,7.83E2,7.9E1,5E0,2.45E2,8.4E1,1.9E1,9E0,2.25E2,5.58E2,3.5E1,4.4E1,1E0,4E0,2.9E1,2.16E2,3.7E1,4.7E1,3E0,1.6E1,2E0,7E0,1.63E2,6.2E1,1.58E2,4E2,2.6E1,9E0,1.1E1,3.3E1,1E0,3E0,1E0,2.8E1,7.9E1,1.37E2,1.1E1,2.6E1,1.2E1,3.5E1,1E0,2E0,5E0,1.1E1,1E0,1E0,6E0,1E0,1.17E2,4.6E1,5E0,5.7E1,3.7E1,1.21E2,3.93E2,7E0,2.3E1,3E0,4E0,5E0,9E0,2E0,1.8E1,1.5E1,2E0,1E0,2.4E1,5.5E1,1.3E1,1.24E2,3E0,8E0,2E0,2.4E1,5E0,7E0,8E0,2.7E1,3E0,2E0,8E0,3E0,1.03E2,1.4E1,1.5E1,3.1E1,4E0,1E0,8E0,4.9E1,2.2E1,1.5E1,1.18E2,3E0,3.83E2,1E1,4E0,3E0],"tree_param":{"num_deleted":"0","num_feature":"7","num_nodes":"103","size_leaf_vector":"1"}},{"base_weights":[4.7138676E-2,-1.5691384E0,1.5841919E-1,1.7059394E0,-1.7350624E0,6.265042E-2,1.677123E0,-1.8298788E0,3.735925E-1,9.4615203E-1,-1.2461914E-1,9.820823E-1,4.2878456E0,-1.0461144E0,-2.091114E0,2.109758E-1,1.7355618E0,4.9599075E0,-1.8206042E-1,5.4803526E-1,1.5638839E0,1.5146284E0,5.6602297E0,-1.6459469E0,1.91466E0,-2.294637E0,-1.153644E0,9.200226E-1,-3.061094E-1,1.0068594E0,3.4255655E0,1.7872701E0,5.922083E-1,-7.943316E-1,1.725073E-1,1.3800012E0,-1.3581402E0,8.10674E-1,-1.7212163E-1,6.5245066E0,-1.8809797E-1,-7.482764E-1,-2.1536255E-1,8.302223E-1,-9.65375E-2,-7.072745E-1,7.1240045E-2,-6.002632E-1,3.1231248E-1,7.5105387E-1,-1.5725093E-2,-1.8641865E-1,3.80821E-1,4.494528E-1,-4.6237665E-1,2.2703223E0,6.420521E-1,1.2066746E-1,-5.849444E-1,1.760757E-1,-1.4409511E-1,-3.096537E-1,5.993532E-1,2.1349835E-1,-6.322138E-1,2.412441E0,3.947235E-1],"categories":[],"categories_nodes":[],"categories_segments":[],"categories_sizes":[],"default_left":[0,0,0,0,0,0,0,0,0,0,0,0,0,0,0,0,0,0,0,0,0,0,0,0,0,0,0,0,0,0,0,0,0,0,0,0,0,0,0,0,0,0,0,0,0,0,0,0,0,0,0,0,0,0,0,0,0,0,0,0,0,0,0,0,0,0,0],"id":7,"left_children":[1,3,5,-1,7,9,11,13,-1,15,17,19,21,23,25,27,29,31,33,35,-1,37,39,41,43,45,47,49,51,53,55,-1,-1,57,59,61,63,-1,-1,65,-1,-1,-1,-1,-1,-1,-1,-1,-1,-1,-1,-1,-1,-1,-1,-1,-1,-1,-1,-1,-1,-1,-1,-1,-1,-1,-1],"loss_changes":[2.2057727E2,1.0497273E2,1.6671967E2,0E0,2.4320679E1,1.788071E2,1.1917894E2,1.3373215E1,0E0,1.09320984E2,2.6142206E2,9.814479E1,4.4709717E1,4.044677E1,8.037415E0,3.657875E1,1.0861832E2,1.8028503E1,1.918289E2,8.275375E1,0E0,1.643148E1,5.299597E1,1.2380661E1,8.519046E0,7.732071E0,2.4395924E1,6.480487E1,2.959956E1,8.368457E1,1.2756027E2,0E0,0E0,4.487469E2,1.5178316E2,5.571466E1,2.631215E1,0E0,0E0,5.263147E1,0E0,0E0,0E0,0E0,0E0,0E0,0E0,0E0,0E0,0E0,0E0,0E0,0E0,0E0,0E0,0E0,0E0,0E0,0E0,0E0,0E0,0E0,0E0,0E0,0E0,0E0,0E0],"parents":[2147483647,0,0,1,1,2,2,4,4,5,5,6,6,7,7,9,9,10,10,11,11,12,12,13,13,14,14,15,15,16,16,17,17,18,18,19,19,21,21,22,22,23,23,24,24,25,25,26,26,27,27,28,28,29,29,30,30,33,33,34,34,35,35,36,36,39,39],"right_children":[2,4,6,-1,8,10,12,14,-1,16,18,20,22,24,26,28,30,32,34,36,-1,38,40,42,44,46,48,50,52,54,56,-1,-1,58,60,62,64,-1,-1,66,-1,-1,-1,-1,-1,-1,-1,-1,-1,-1,-1,-1,-1,-1,-1,-1,-1,-1,-1,-1,-1,-1,-1,-1,-1,-1,-1],"split_conditions":[9E0,8.435069E0,1.7139585E1,1.7059394E0,1.37229185E1,1.1200571E1,3.3000002E0,4.5874996E0,3.735925E-1,2.5E1,-6.5812507E0,4.3E1,2E1,9E0,8E0,1.9E1,7.1729164E0,1E-1,1.8942168E2,1.961587E1,1.5638839E0,6.1E0,3.4525638E2,1.5463244E1,3.3083336E0,4.2E1,1.2068751E1,4.5312495E0,4E0,3.6E1,8.5875E0,1.7872701E0,5.922083E-1,9.69583E1,5.7E0,1.2768586E1,1.7416666E1,8.10674E-1,-1.7212163E-1,2.6E1,-1.8809797E-1,-7.482764E-1,-2.1536255E-1,8.302223E-1,-9.65375E-2,-7.072745E-1,7.1240045E-2,-6.002632E-1,3.1231248E-1,7.5105387E-1,-1.5725093E-2,-1.8641865E-1,3.80821E-1,4.494528E-1,-4.6237665E-1,2.2703223E0,6.420521E-1,1.2066746E-1,-5.849444E-1,1.760757E-1,-1.4409511E-1,-3.096537E-1,5.993532E-1,2.1349835E-1,-6.322138E-1,2.412441E0,3.947235E-1],"split_indices":[0,5,3,0,3,5,4,3,0,0,3,1,0,4,0,2,3,4,6,5,0,4,6,5,3,1,3,3,4,1,3,0,0,6,4,5,3,0,0,1,0,0,0,0,0,0,0,0,0,0,0,0,0,0,0,0,0,0,0,0,0,0,0,0,0,0,0],"split_type":[0,0,0,0,0,0,0,0,0,0,0,0,0,0,0,0,0,0,0,0,0,0,0,0,0,0,0,0,0,0,0,0,0,0,0,0,0,0,0,0,0,0,0,0,0,0,0,0,0,0,0,0,0,0,0,0,0,0,0,0,0,0,0,0,0,0,0],"sum_hessian":[1.224E3,7.8E1,1.146E3,1E0,7.7E1,1.079E3,6.7E1,7.5E1,2E0,1.88E2,8.91E2,5.4E1,1.3E1,2E1,5.5E1,9.8E1,9E1,9E0,8.82E2,5E1,4E0,5E0,8E0,1.7E1,3E0,4.4E1,1.1E1,4.1E1,5.7E1,6.4E1,2.6E1,6E0,3E0,3.23E2,5.59E2,3.5E1,1.5E1,3E0,2E0,7E0,1E0,8E0,9E0,2E0,1E0,4.3E1,1E0,8E0,3E0,1.5E1,2.6E1,4.8E1,9E0,5.4E1,1E1,5E0,2.1E1,1.59E2,1.64E2,3.42E2,2.17E2,7E0,2.8E1,4E0,1.1E1,5E0,2E0],"tree_param":{"num_deleted":"0","num_feature":"7","num_nodes":"67","size_leaf_vector":"1"}},{"base_weights":[4.2298634E-2,-1.463232E-1,6.620966E-1,-1.125344E0,-4.1338235E-2,2.1597095E0,4.0980303E-1,1.6917161E0,-1.3407131E0,-1.7862941E-1,1.0516456E0,2.8341515E0,-4.7874184E0,-3.9398932E0,5.725655E-1,-1.0474842E0,-2.7174776E0,9.7610646E-1,-2.8319675E-1,5.70655E-1,7.016863E0,1.6317102E0,5.637261E0,-2.0231252E0,1.622366E-1,-5.6074443E0,3.79307E-1,6.4402336E-1,-1.5718926E0,-8.4771377E-1,-3.2035573E0,-3.5037897E0,4.7871038E-1,5.0538926E0,2.0288485E-1,-1.0469016E-2,-7.088549E-1,-4.300652E0,9.11812E-1,1.872544E1,-1.4116551E0,3.8008926E0,2.1544817E-1,6.5997047E0,8.7084323E-1,-7.8521013E-1,-2.158698E0,4.56255E-1,3.8298764E0,-3.610766E-1,6.1822945E-1,-3.858841E-1,-1.1521878E0,-2.9499508E-2,-1.3546783E0,2.5369706E0,-1.2029343E-2,1.735396E-1,-1.390946E0,-7.967639E-2,6.4323044E-1,-3.5407668E-1,8.545685E-2,-1.4012903E0,-3.6736107E-1,5.123195E-1,-1.1099851E-1,6.6580663E0,1.7683812E0,-4.7463227E-2,-9.6381485E-1,1.4920481E0,-1.1887679E0,-1.8805759E-1,7.592453E-1,4.3995954E-2,2.2164013E0,3.588873E-1,3.2992173E-2,-9.300782E-2,3.6759126E-1,1.3589593E0,3.3673126E-1],"categories":[],"categories_nodes":[],"categories_segments":[],"categories_sizes":[],"default_left":[0,0,0,0,0,0,0,0,0,0,0,0,0,0,0,0,0,0,0,0,0,0,0,0,0,0,0,0,0,0,0,0,0,0,0,0,0,0,0,0,0,0,0,0,0,0,0,0,0,0,0,0,0,0,0,0,0,0,0,0,0,0,0,0,0,0,0,0,0,0,0,0,0,0,0,0,0,0,0,0,0,0,0],"id":8,"left_children":[1,3,5,7,9,11,13,-1,15,17,19,21,23,25,27,29,31,33,35,37,39,41,43,-1,-1,45,-1,47,-1,49,51,53,-1,55,57,59,61,63,65,67,69,71,73,75,77,-1,-1,79,81,-1,-1,-1,-1,-1,-1,-1,-1,-1,-1,-1,-1,-1,-1,-1,-1,-1,-1,-1,-1,-1,-1,-1,-1,-1,-1,-1,-1,-1,-1,-1,-1,-1,-1],"loss_changes":[1.4330849E2,9.6569016E1,1.07176636E2,1.4013297E2,1.2773635E2,2.0567111E2,1.7641579E2,0E0,3.3083435E1,9.156166E1,2.6857108E2,1.18883484E2,4.5341896E1,8.519498E1,1.02222496E2,2.9588257E1,5.6463585E1,1.9761566E2,8.055818E1,1.5182875E2,7.172355E2,8.520077E1,4.4714203E1,0E0,0E0,1.4408524E1,0E0,1.3942834E2,0E0,7.493411E1,2.3885002E0,4.4349518E1,0E0,1.7367107E2,1.0083099E2,2.3363028E2,1.27282394E2,1.1150208E0,8.632994E1,2.6741943E0,1.0779362E1,1.19845535E2,3.6690987E1,4.4698944E1,6.113088E-1,0E0,0E0,1.3238483E2,1.955278E1,0E0,0E0,0E0,0E0,0E0,0E0,0E0,0E0,0E0,0E0,0E0,0E0,0E0,0E0,0E0,0E0,0E0,0E0,0E0,0E0,0E0,0E0,0E0,0E0,0E0,0E0,0E0,0E0,0E0,0E0,0E0,0E0,0E0,0E0],"parents":[2147483647,0,0,1,1,2,2,3,3,4,4,5,5,6,6,8,8,9,9,10,10,11,11,12,12,13,13,14,14,15,15,16,16,17,17,18,18,19,19,20,20,21,21,22,22,25,25,27,27,29,29,30,30,31,31,33,33,34,34,35,35,36,36,37,37,38,38,39,39,40,40,41,41,42,42,43,43,44,44,47,47,48,48],"right_children":[2,4,6,8,10,12,14,-1,16,18,20,22,24,26,28,30,32,34,36,38,40,42,44,-1,-1,46,-1,48,-1,50,52,54,-1,56,58,60,62,64,66,68,70,72,74,76,78,-1,-1,80,82,-1,-1,-1,-1,-1,-1,-1,-1,-1,-1,-1,-1,-1,-1,-1,-1,-1,-1,-1,-1,-1,-1,-1,-1,-1,-1,-1,-1,-1,-1,-1,-1,-1,-1],"split_conditions":[2.8E1,1E1,8.360275E1,8.435069E0,2.772E1,4.1E1,1.5E1,1.6917161E0,9E0,-1.0062499E0,3.5E1,7.548438E1,3.9E1,2.716667E0,5.1E1,2E1,3.3E1,1.6E1,1.872346E1,-1.3749991E-1,3.7E1,1.1620809E1,2E0,-2.0231252E0,1.622366E-1,1.9E1,3.79307E-1,4.6E1,-1.5718926E0,1.3E1,9E0,1.2E1,4.7871038E-1,2.3E1,2.1398056E1,1.7555307E1,2.5E1,2.8E1,9.999999E0,1.3E1,2.4E1,4.2E1,1.7447933E1,1.0296251E1,2.9E1,-7.8521013E-1,-2.158698E0,2.3675986E2,5.1E1,-3.610766E-1,6.1822945E-1,-3.858841E-1,-1.1521878E0,-2.9499508E-2,-1.3546783E0,2.5369706E0,-1.2029343E-2,1.735396E-1,-1.390946E0,-7.967639E-2,6.4323044E-1,-3.5407668E-1,8.545685E-2,-1.4012903E0,-3.6736107E-1,5.123195E-1,-1.1099851E-1,6.6580663E0,1.7683812E0,-4.7463227E-2,-9.6381485E-1,1.4920481E0,-1.1887679E0,-1.8805759E-1,7.592453E-1,4.3995954E-2,2.2164013E0,3.588873E-1,3.2992173E-2,-9.300782E-2,3.6759126E-1,1.3589593E0,3.3673126E-1],"split_indices":[0,1,6,5,5,2,1,0,1,3,1,6,0,3,2,2,2,0,5,3,1,5,4,0,0,2,0,1,0,0,0,0,0,1,5,5,2,2,4,0,0,1,5,5,0,0,0,6,1,0,0,0,0,0,0,0,0,0,0,0,0,0,0,0,0,0,0,0,0,0,0,0,0,0,0,0,0,0,0,0,0,0,0],"split_type":[0,0,0,0,0,0,0,0,0,0,0,0,0,0,0,0,0,0,0,0,0,0,0,0,0,0,0,0,0,0,0,0,0,0,0,0,0,0,0,0,0,0,0,0,0,0,0,0,0,0,0,0,0,0,0,0,0,0,0,0,0,0,0,0,0,0,0,0,0,0,0,0,0,0,0,0,0,0,0,0,0,0,0],"sum_hessian":[1.224E3,9.39E2,2.85E2,9E1,8.49E2,4E1,2.45E2,2E0,8.8E1,7.55E2,9.4E1,3.7E1,3E0,8E0,2.37E2,7.4E1,1.4E1,6.2E1,6.93E2,8.8E1,6E0,2.7E1,1E1,2E0,1E0,6E0,2E0,2.35E2,2E0,6.9E1,5E0,1.2E1,2E0,9E0,5.3E1,4.23E2,2.7E2,5E0,8.3E1,2E0,4E0,1E1,1.7E1,8E0,2E0,3E0,3E0,2.23E2,1.2E1,6.2E1,7E0,2E0,3E0,3E0,9E0,5E0,4E0,5E1,3E0,3.79E2,4.4E1,1.83E2,8.7E1,4E0,1E0,5.1E1,3.2E1,1E0,1E0,3E0,1E0,9E0,1E0,1.3E1,4E0,1E0,7E0,1E0,1E0,1.12E2,1.11E2,9E0,3E0],"tree_param":{"num_deleted":"0","num_feature":"7","num_nodes":"83","size_leaf_vector":"1"}},{"base_weights":[3.5041593E-2,1.050278E0,-4.2535756E-2,6.163194E-1,3.0921907E0,-1.15726866E-1,1.094134E0,-2.411739E-1,1.607008E0,1.2028474E0,5.0796046E0,1.496818E-1,-5.163659E-1,5.4720503E-1,3.2036977E0,9.47881E-1,-1.1612527E0,2.398508E0,-5.3244287E-1,7.431154E-1,1.5290356E-1,2.0822475E0,2.946952E0,2.5686359E-2,2.8810925E0,-1.1691155E0,-1.4386564E-1,2.8522098E-1,9.487194E-1,1.2258621E0,4.1662884E0,-8.5895264E-1,1.9228772E0,7.357199E-1,-2.2220194E0,-2.1688557E-1,2.765011E0,-1.4209268E0,1.119587E0,-3.5250968E-1,4.0199548E-1,2.136798E-1,9.982672E-1,-8.4317386E-2,1.6609808E0,6.1823277E0,-8.617373E-1,4.08325E-1,-2.040791E0,3.0331304E0,-3.4033105E-1,8.032586E-1,-9.3056726E-1,6.2237966E-1,-9.432221E-2,4.7760506E0,-1.0677166E-1,-7.4204683E-1,2.9109666E-1,1.1617738E0,2.52807E-1,8.432351E-1,-2.3108274E-1,-9.0824443E-1,2.2496124E-1,-3.2999983E-1,1.3324566E-1,2.1636047E0,5.049819E-1,3.7843594E-1,-7.102586E-1,4.5767214E-2,-2.2202206E-1,-9.513038E-3,-1.0255297E0,2.6674414E0,2.3072323E-2,2.7118766E-1,2.8802402E0,9.400097E-2,-1.1633269E0,2.8085223E-1,-1.0261072E0,3.3843356E-1,-7.335386E-1,-1.0990706E-1,1.2590468E0,1.4268143E-1,-2.630629E-1,7.511171E-2,6.813043E-1,-1.1547761E0,-1.4381137E-1,1.764717E0,2.9140663E-1],"categories":[],"categories_nodes":[],"categories_segments":[],"categories_sizes":[],"default_left":[0,0,0,0,0,0,0,0,0,0,0,0,0,0,0,0,0,0,0,0,0,0,0,0,0,0,0,0,0,0,0,0,0,0,0,0,0,0,0,0,0,0,0,0,0,0,0,0,0,0,0,0,0,0,0,0,0,0,0,0,0,0,0,0,0,0,0,0,0,0,0,0,0,0,0,0,0,0,0,0,0,0,0,0,0,0,0,0,0,0,0,0,0,0,0],"id":9,"left_children":[1,3,5,7,9,11,13,15,17,19,21,23,25,27,29,31,33,35,37,-1,39,-1,41,43,45,47,49,51,-1,53,55,57,59,61,63,65,67,69,-1,71,-1,-1,-1,73,75,77,79,81,83,85,87,89,91,-1,-1,93,-1,-1,-1,-1,-1,-1,-1,-1,-1,-1,-1,-1,-1,-1,-1,-1,-1,-1,-1,-1,-1,-1,-1,-1,-1,-1,-1,-1,-1,-1,-1,-1,-1,-1,-1,-1,-1,-1,-1],"loss_changes":[9.6524864E1,7.518538E1,9.488472E1,6.2401707E1,5.021364E1,1.13960014E2,7.785785E1,4.4861694E1,5.8851852E1,1.1661833E1,7.3310547E0,2.1837619E2,1.0365661E2,3.7465782E1,2.1546555E1,3.3361465E1,4.7916428E1,2.456343E1,4.319134E1,0E0,4.0721574E0,0E0,1.8825607E0,1.1131116E2,3.512945E2,2.1396086E2,1.7143062E2,3.3498337E1,0E0,8.495969E0,2.6516998E1,2.30741E1,2.200914E1,3.0290407E1,3.8176376E1,2.8236537E0,9.3691086E1,2.5838835E1,0E0,1.0916324E0,0E0,0E0,0E0,1.0162281E2,4.460075E2,2.6198065E2,5.083167E1,1.1637616E2,1.3088898E2,6.483284E1,1.1336597E2,2.9456968E1,1.9225174E1,0E0,0E0,2.7960373E1,0E0,0E0,0E0,0E0,0E0,0E0,0E0,0E0,0E0,0E0,0E0,0E0,0E0,0E0,0E0,0E0,0E0,0E0,0E0,0E0,0E0,0E0,0E0,0E0,0E0,0E0,0E0,0E0,0E0,0E0,0E0,0E0,0E0,0E0,0E0,0E0,0E0,0E0,0E0],"parents":[2147483647,0,0,1,1,2,2,3,3,4,4,5,5,6,6,7,7,8,8,9,9,10,10,11,11,12,12,13,13,14,14,15,15,16,16,17,17,18,18,20,20,22,22,23,23,24,24,25,25,26,26,27,27,29,29,30,30,31,31,32,32,33,33,34,34,35,35,36,36,37,37,39,39,43,43,44,44,45,45,46,46,47,47,48,48,49,49,50,50,51,51,52,52,55,55],"right_children":[2,4,6,8,10,12,14,16,18,20,22,24,26,28,30,32,34,36,38,-1,40,-1,42,44,46,48,50,52,-1,54,56,58,60,62,64,66,68,70,-1,72,-1,-1,-1,74,76,78,80,82,84,86,88,90,92,-1,-1,94,-1,-1,-1,-1,-1,-1,-1,-1,-1,-1,-1,-1,-1,-1,-1,-1,-1,-1,-1,-1,-1,-1,-1,-1,-1,-1,-1,-1,-1,-1,-1,-1,-1,-1,-1,-1,-1,-1,-1],"split_conditions":[8.709098E0,8.373386E0,1.7139585E1,2.7E1,3.2041671E0,9.364583E0,3.3000002E0,7.24486E0,3.2E1,2.2E1,1.4E1,8.764584E0,1.6368358E2,4.3E1,2E1,7.9045975E1,3.70625E0,1.7E1,4.2E1,7.431154E-1,1.0000001E0,2.0822475E0,1.9E1,3.6E1,2.645886E2,5.9958736E1,2.0625583E2,1.961587E1,9.487194E-1,6.1E0,3.4525638E2,2.1E1,1.7E1,2E1,4E0,9.855764E1,2.4E1,6.618519E0,1.119587E0,2.2E1,4.0199548E-1,2.136798E-1,9.982672E-1,2.3500002E1,3.7E1,1.6E1,2.3E1,3.1E1,1.0296251E1,9E0,1.5E0,1.8089775E1,9.2879265E1,6.2237966E-1,-9.432221E-2,2.6E1,-1.0677166E-1,-7.4204683E-1,2.9109666E-1,1.1617738E0,2.52807E-1,8.432351E-1,-2.3108274E-1,-9.0824443E-1,2.2496124E-1,-3.2999983E-1,1.3324566E-1,2.1636047E0,5.049819E-1,3.7843594E-1,-7.102586E-1,4.5767214E-2,-2.2202206E-1,-9.513038E-3,-1.0255297E0,2.6674414E0,2.3072323E-2,2.7118766E-1,2.8802402E0,9.400097E-2,-1.1633269E0,2.8085223E-1,-1.0261072E0,3.3843356E-1,-7.335386E-1,-1.0990706E-1,1.2590468E0,1.4268143E-1,-2.630629E-1,7.511171E-2,6.813043E-1,-1.1547761E0,-1.4381137E-1,1.764717E0,2.9140663E-1],"split_indices":[5,5,3,0,3,3,4,5,2,1,1,3,6,1,0,6,3,1,2,0,4,0,0,1,6,6,6,5,0,4,6,2,1,0,4,6,1,5,0,0,0,0,0,4,1,1,0,2,5,0,4,5,6,0,0,1,0,0,0,0,0,0,0,0,0,0,0,0,0,0,0,0,0,0,0,0,0,0,0,0,0,0,0,0,0,0,0,0,0,0,0,0,0,0,0],"split_type":[0,0,0,0,0,0,0,0,0,0,0,0,0,0,0,0,0,0,0,0,0,0,0,0,0,0,0,0,0,0,0,0,0,0,0,0,0,0,0,0,0,0,0,0,0,0,0,0,0,0,0,0,0,0,0,0,0,0,0,0,0,0,0,0,0,0,0,0,0,0,0,0,0,0,0,0,0,0,0,0,0,0,0,0,0,0,0,0,0,0,0,0,0,0,0],"sum_hessian":[1.224E3,8.6E1,1.138E3,7.2E1,1.4E1,1.07E3,6.8E1,3.9E1,3.3E1,8E0,6E0,6.44E2,4.26E2,5.5E1,1.3E1,1.7E1,2.2E1,2.4E1,9E0,3E0,5E0,2E0,4E0,6.17E2,2.7E1,1.54E2,2.72E2,5.1E1,4E0,5E0,8E0,6E0,1.1E1,8E0,1.4E1,3E0,2.1E1,8E0,1E0,4E0,1E0,1E0,3E0,5.79E2,3.8E1,1.4E1,1.3E1,5.5E1,9.9E1,1.5E1,2.57E2,3.6E1,1.5E1,3E0,2E0,7E0,1E0,3E0,3E0,3E0,8E0,3E0,5E0,1.1E1,3E0,1E0,2E0,3E0,1.8E1,2E0,6E0,2E0,2E0,5.71E2,8E0,6E0,3.2E1,6E0,8E0,1E1,3E0,4.9E1,6E0,1.1E1,8.8E1,4E0,1.1E1,1.02E2,1.55E2,2.7E1,9E0,1E0,1.4E1,5E0,2E0],"tree_param":{"num_deleted":"0","num_feature":"7","num_nodes":"95","size_leaf_vector":"1"}},{"base_weights":[3.6713302E-2,5.7169802E-2,-3.5308852E0,-4.3070804E-2,7.209065E-1,-5.481794E0,1.226185E0,-1.4389856E-1,7.261935E-1,1.683504E0,-9.5546377E-1,-2.0036986E0,7.5631715E-2,-2.0607632E-2,-6.738635E-1,3.854887E-1,5.575639E0,-1.0548632E-1,2.502835E0,-2.1472822E-1,-3.113973E0,-1.1723963E-1,3.7643828E0,-1.1642264E0,1.2130296E0,-2.740214E0,6.1136144E-1,5.25924E0,1.3633586E0,-1.6980436E0,1.6927335E0,4.821124E0,1.8371712E0,-1.7076776E0,1.5728177E0,-3.9994576E0,1.7611185E0,1.1385343E-2,-3.8689014E-1,2.707491E0,6.6418874E-1,-1.221725E0,-2.8760344E-1,-1.02173455E-1,9.820278E-1,-4.166737E-2,-9.2759705E-1,-3.9741337E-1,2.9505393E-1,1.5587877E0,-3.6266193E-1,1.1582683E0,-7.902651E-1,6.480823E-1,-7.980569E-1,2.1091454E0,3.8753587E-1,-8.03736E-3,9.132158E-1,1.3427857E-1,-1.2239568E0,-8.000609E-1,1.0339452E0,-1.4303294E0,-3.236478E-1,8.0733037E-1,-1.48269655E-2],"categories":[],"categories_nodes":[],"categories_segments":[],"categories_sizes":[],"default_left":[0,0,0,0,0,0,0,0,0,0,0,0,0,0,0,0,0,0,0,0,0,0,0,0,0,0,0,0,0,0,0,0,0,0,0,0,0,0,0,0,0,0,0,0,0,0,0,0,0,0,0,0,0,0,0,0,0,0,0,0,0,0,0,0,0,0,0],"id":10,"left_children":[1,3,5,7,9,11,-1,13,15,17,19,-1,-1,21,23,25,27,29,31,33,35,37,39,41,43,45,47,-1,49,51,53,55,57,59,61,63,65,-1,-1,-1,-1,-1,-1,-1,-1,-1,-1,-1,-1,-1,-1,-1,-1,-1,-1,-1,-1,-1,-1,-1,-1,-1,-1,-1,-1,-1,-1],"loss_changes":[8.9603065E1,8.113523E1,1.26442085E2,8.232148E1,2.5979572E2,4.2871597E1,0E0,6.127491E1,2.0107486E2,1.497731E2,9.366551E1,0E0,0E0,2.7914374E2,1.6518372E2,8.3572556E1,3.7896716E2,9.7378685E1,9.916684E1,1.2277807E2,7.179581E1,1.3541585E2,1.3498535E2,8.038196E1,1.1955362E2,6.8912086E0,7.983873E1,0E0,7.528959E1,1.0384475E2,3.830945E1,1.07881805E2,1.2605812E2,1.2964343E2,1.7601027E2,2.4027634E1,5.1843195E0,0E0,0E0,0E0,0E0,0E0,0E0,0E0,0E0,0E0,0E0,0E0,0E0,0E0,0E0,0E0,0E0,0E0,0E0,0E0,0E0,0E0,0E0,0E0,0E0,0E0,0E0,0E0,0E0,0E0,0E0],"parents":[2147483647,0,0,1,1,2,2,3,3,4,4,5,5,7,7,8,8,9,9,10,10,13,13,14,14,15,15,16,16,17,17,18,18,19,19,20,20,21,21,22,22,23,23,24,24,25,25,26,26,28,28,29,29,30,30,31,31,32,32,33,33,34,34,35,35,36,36],"right_children":[2,4,6,8,10,12,-1,14,16,18,20,-1,-1,22,24,26,28,30,32,34,36,38,40,42,44,46,48,-1,50,52,54,56,58,60,62,64,66,-1,-1,-1,-1,-1,-1,-1,-1,-1,-1,-1,-1,-1,-1,-1,-1,-1,-1,-1,-1,-1,-1,-1,-1,-1,-1,-1,-1,-1,-1],"split_conditions":[3.5499945E2,3.2E1,2.0188908E1,2.772E1,1.7873554E1,2.4E1,1.226185E0,5.7E0,3.6E1,1.7062501E0,2.8803436E2,-2.0036986E0,7.5631715E-2,5.3E0,2.6E1,-1.3749991E-1,1.3E1,2.9E1,4.3416667E0,2.3518172E2,3.2165433E2,3.2E1,9.69583E1,5.9E0,2.0380579E1,7E0,2.1000001E0,5.25924E0,2.3000002E0,6.2145634E0,-1.0479167E0,1.31041975E1,1.120625E1,6E-1,3.5E1,1.7139585E1,3.5E1,1.1385343E-2,-3.8689014E-1,2.707491E0,6.6418874E-1,-1.221725E0,-2.8760344E-1,-1.02173455E-1,9.820278E-1,-4.166737E-2,-9.2759705E-1,-3.9741337E-1,2.9505393E-1,1.5587877E0,-3.6266193E-1,1.1582683E0,-7.902651E-1,6.480823E-1,-7.980569E-1,2.1091454E0,3.8753587E-1,-8.03736E-3,9.132158E-1,1.3427857E-1,-1.2239568E0,-8.000609E-1,1.0339452E0,-1.4303294E0,-3.236478E-1,8.0733037E-1,-1.48269655E-2],"split_indices":[6,0,5,5,5,2,0,4,1,3,6,0,0,4,2,3,0,1,3,6,6,2,6,4,5,1,4,0,4,5,3,5,3,4,0,3,0,0,0,0,0,0,0,0,0,0,0,0,0,0,0,0,0,0,0,0,0,0,0,0,0,0,0,0,0,0,0],"split_type":[0,0,0,0,0,0,0,0,0,0,0,0,0,0,0,0,0,0,0,0,0,0,0,0,0,0,0,0,0,0,0,0,0,0,0,0,0,0,0,0,0,0,0,0,0,0,0,0,0,0,0,0,0,0,0,0,0,0,0,0,0,0,0,0,0,0,0],"sum_hessian":[1.224E3,1.218E3,6E0,1.059E3,1.59E2,5E0,1E0,9.37E2,1.22E2,1.01E2,5.8E1,4E0,1E0,7.61E2,1.76E2,1.15E2,7E0,3.2E1,6.9E1,4.4E1,1.4E1,7.43E2,1.8E1,1.4E2,3.6E1,7E0,1.08E2,1E0,6E0,1.7E1,1.5E1,1.4E1,5.5E1,2.4E1,2E1,1.2E1,2E0,6.57E2,8.6E1,3E0,1.5E1,8E0,1.32E2,2.1E1,1.5E1,1E0,6E0,1.7E1,9.1E1,2E0,4E0,2E0,1.5E1,1.4E1,1E0,8E0,6E0,2.2E1,3.3E1,1.3E1,1.1E1,6E0,1.4E1,9E0,3E0,1E0,1E0],"tree_param":{"num_deleted":"0","num_feature":"7","num_nodes":"67","size_leaf_vector":"1"}},{"base_weights":[3.2924972E-2,-2.0225114E-1,2.2548327E-1,5.605339E-1,-3.6406672E-1,1.7637131E0,1.4354052E-1,2.4129097E-1,6.3863454E0,-4.2734304E-1,1.0367248E0,5.6173544E0,1.5170822E-1,-8.954294E-1,2.310489E-1,-1.8191125E0,6.9305164E-1,-4.681435E-1,1.2204387E1,-3.0608234E-1,-1.1423498E0,1.4672714E0,-5.67639E-1,7.695144E-1,3.0933874E0,1.4614496E0,-2.3391044E0,-1.3862513E0,3.422386E-1,2.5896388E-1,-3.0979638E0,-7.173079E-1,-1.2959946E0,-7.512099E-1,1.2480642E0,4.470354E0,1.0216202E0,-4.8469898E-1,1.6236117E0,2.44451E0,-1.7085205E0,2.8368418E0,8.7333405E-1,1.6130353E0,-1.2272965E0,-6.8559074E-1,3.032937E0,-2.915456E0,3.4075642E-1,-3.3154413E-2,-2.0614183E0,7.895056E-1,-1.7099978E0,1.4541198E-1,1.0220318E0,1.0422573E0,-1.682865E0,3.7011424E-1,-6.272733E-1,-1.162391E0,1.9867195E-1,8.869302E-1,-1.3332997E-1,-1.6638893E-1,8.883599E-1,-3.1642616E-1,7.681045E-1,2.3928167E-1,9.405084E-1,-7.4238336E-1,4.4844713E-2,1.6235262E-1,9.826394E-1,9.98162E-1,5.6126457E-2,9.4137645E-1,-9.309244E-1,2.647434E-1,-7.422837E-1,1.3434515E0,-7.63371E-2,-2.608492E-1,-9.2505664E-1,-1.8676935E-1,4.3459785E-1,-9.035389E-1,-1.993335E-1,-4.8404774E-1,4.1192862E-1,-7.011938E-2,-6.993797E-1,1.7010349E-1,-4.6023704E-2,-5.185493E-2,6.305239E-1],"categories":[],"categories_nodes":[],"categories_segments":[],"categories_sizes":[],"default_left":[0,0,0,0,0,0,0,0,0,0,0,0,0,0,0,0,0,0,0,0,0,0,0,0,0,0,0,0,0,0,0,0,0,0,0,0,0,0,0,0,0,0,0,0,0,0,0,0,0,0,0,0,0,0,0,0,0,0,0,0,0,0,0,0,0,0,0,0,0,0,0,0,0,0,0,0,0,0,0,0,0,0,0,0,0,0,0,0,0,0,0,0,0,0,0],"id":11,"left_children":[1,3,5,7,9,11,13,15,17,19,21,23,25,27,29,31,33,-1,35,37,39,41,-1,43,-1,45,47,49,51,53,55,57,-1,59,61,-1,-1,63,65,67,69,71,73,-1,75,77,79,81,-1,83,85,87,89,91,93,-1,-1,-1,-1,-1,-1,-1,-1,-1,-1,-1,-1,-1,-1,-1,-1,-1,-1,-1,-1,-1,-1,-1,-1,-1,-1,-1,-1,-1,-1,-1,-1,-1,-1,-1,-1,-1,-1,-1,-1],"loss_changes":[5.5519867E1,6.833771E1,8.470236E1,1.7886438E2,4.0861496E1,2.1035881E2,5.8485683E1,8.7826004E1,2.5021942E2,3.753923E1,2.7996437E1,2.1961987E2,8.4976494E1,3.084816E1,5.5816444E1,4.3744232E1,6.2659466E1,0E0,2.0442657E1,1.3004027E2,1.3211531E2,1.2164391E1,0E0,6.1797985E1,0E0,5.9438156E1,2.1336716E1,3.2820045E1,1.5118518E1,5.0800297E1,1.0202132E2,3.741868E1,0E0,9.969168E1,1.63233E2,0E0,0E0,8.4537506E1,8.298608E1,7.734436E0,7.865683E1,3.2620583E0,2.2952955E1,0E0,5.067827E1,2.4621784E1,4.865004E1,6.9740295E-2,0E0,1.2256033E1,2.9862488E1,2.0446224E1,2.2065802E0,6.471688E1,9.8413246E1,0E0,0E0,0E0,0E0,0E0,0E0,0E0,0E0,0E0,0E0,0E0,0E0,0E0,0E0,0E0,0E0,0E0,0E0,0E0,0E0,0E0,0E0,0E0,0E0,0E0,0E0,0E0,0E0,0E0,0E0,0E0,0E0,0E0,0E0,0E0,0E0,0E0,0E0,0E0,0E0],"parents":[2147483647,0,0,1,1,2,2,3,3,4,4,5,5,6,6,7,7,8,8,9,9,10,10,11,11,12,12,13,13,14,14,15,15,16,16,18,18,19,19,20,20,21,21,23,23,25,25,26,26,27,27,28,28,29,29,30,30,31,31,33,33,34,34,37,37,38,38,39,39,40,40,41,41,42,42,44,44,45,45,46,46,47,47,49,49,50,50,51,51,52,52,53,53,54,54],"right_children":[2,4,6,8,10,12,14,16,18,20,22,24,26,28,30,32,34,-1,36,38,40,42,-1,44,-1,46,48,50,52,54,56,58,-1,60,62,-1,-1,64,66,68,70,72,74,-1,76,78,80,82,-1,84,86,88,90,92,94,-1,-1,-1,-1,-1,-1,-1,-1,-1,-1,-1,-1,-1,-1,-1,-1,-1,-1,-1,-1,-1,-1,-1,-1,-1,-1,-1,-1,-1,-1,-1,-1,-1,-1,-1,-1,-1,-1,-1,-1],"split_conditions":[2.1E1,1.8645834E0,1.4E1,1.7458334E0,1.69125E1,2.2E1,2.2E1,-3.2666664E0,2.8856194E1,2.9E1,2.9E1,1.8210371E2,2E0,1.9107151E1,3.5499945E2,1.9E1,3E-1,-4.681435E-1,1.3E1,2.6E1,1.210157E1,1.2E1,-5.67639E-1,8.587338E0,3.0933874E0,1.4264361E1,4.25625E0,1.0794539E2,2.8577014E2,2.95928E2,2E1,1.3182004E2,-1.2959946E0,1.5E1,2.2601685E2,4.470354E0,1.0216202E0,3.492742E1,6.731251E0,6.356319E1,1.1327084E1,7E0,4.895586E1,1.6130353E0,7E0,1E-1,1.9E1,2.4E1,3.4075642E-1,8.42806E1,2.5583777E2,1.3182004E2,2.1E1,1.4565548E1,2.3E1,1.0422573E0,-1.682865E0,3.7011424E-1,-6.272733E-1,-1.162391E0,1.9867195E-1,8.869302E-1,-1.3332997E-1,-1.6638893E-1,8.883599E-1,-3.1642616E-1,7.681045E-1,2.3928167E-1,9.405084E-1,-7.4238336E-1,4.4844713E-2,1.6235262E-1,9.826394E-1,9.98162E-1,5.6126457E-2,9.4137645E-1,-9.309244E-1,2.647434E-1,-7.422837E-1,1.3434515E0,-7.63371E-2,-2.608492E-1,-9.2505664E-1,-1.8676935E-1,4.3459785E-1,-9.035389E-1,-1.993335E-1,-4.8404774E-1,4.1192862E-1,-7.011938E-2,-6.993797E-1,1.7010349E-1,-4.6023704E-2,-5.185493E-2,6.305239E-1],"split_indices":[0,3,1,3,3,0,0,3,5,2,1,6,4,5,6,0,4,0,0,2,5,2,0,5,0,5,3,6,6,6,2,6,0,0,6,0,0,5,3,6,3,0,6,0,2,4,2,0,0,6,6,6,1,5,2,0,0,0,0,0,0,0,0,0,0,0,0,0,0,0,0,0,0,0,0,0,0,0,0,0,0,0,0,0,0,0,0,0,0,0,0,0,0,0,0],"split_type":[0,0,0,0,0,0,0,0,0,0,0,0,0,0,0,0,0,0,0,0,0,0,0,0,0,0,0,0,0,0,0,0,0,0,0,0,0,0,0,0,0,0,0,0,0,0,0,0,0,0,0,0,0,0,0,0,0,0,0,0,0,0,0,0,0,0,0,0,0,0,0,0,0,0,0,0,0,0,0,0,0,0,0,0,0,0,0,0,0,0,0,0,0,0,0],"sum_hessian":[1.224E3,5.51E2,6.73E2,9.6E1,4.55E2,3.3E1,6.4E2,9.2E1,4E0,4.36E2,1.9E1,9E0,2.4E1,4.9E1,5.91E2,1.6E1,7.6E1,2E0,2E0,3.74E2,6.2E1,1.7E1,2E0,5E0,4E0,1.6E1,8E0,3.5E1,1.4E1,5.87E2,4E0,1.2E1,4E0,2.1E1,5.5E1,1E0,1E0,3.43E2,3.1E1,8E0,5.4E1,4E0,1.3E1,1E0,4E0,7E0,9E0,7E0,1E0,1.2E1,2.3E1,1.2E1,2E0,5.12E2,7.5E1,1E0,3E0,5E0,7E0,6E0,1.5E1,2.7E1,2.8E1,3.37E2,6E0,8E0,2.3E1,3E0,5E0,3.8E1,1.6E1,1E0,3E0,2E0,1.1E1,1E0,3E0,4E0,3E0,6E0,3E0,1E0,6E0,9E0,3E0,1.3E1,1E1,2E0,1E1,1E0,1E0,2.12E2,3E2,3.6E1,3.9E1],"tree_param":{"num_deleted":"0","num_feature":"7","num_nodes":"95","size_leaf_vector":"1"}},{"base_weights":[3.086396E-2,9.338426E-3,1.8921555E0,3.6704324E-2,-1.7108837E0,2.83823E0,-7.568583E-1,-4.0532805E-2,7.347753E-1,3.1877455E-1,-2.4585314E0,6.32606E-1,3.5031483E0,5.947044E-1,-1.1939783E-1,4.811363E-1,3.451327E0,-1.474452E-1,2.5024283E-1,7.301235E-2,-3.1555898E0,-1.5604063E0,1.0817466E0,1.23300366E-1,3.8382916E0,-2.9666743E-1,1.7489078E0,2.9337263E-1,-2.632061E-1,9.3429675E-3,2.0848598E0,3.7998002E0,1.0201411E0,-5.576172E-2,-4.8245434E-3,-8.378773E-1,4.208522E-1,-2.1463375E0,-1.5394452E0,-3.6335852E-2,-6.6584706E-1,1.3025258E0,4.655819E-1,3.8280663E-1,-3.550496E-1,1.2544647E-1,1.2717966E0,-4.54798E-2,3.850578E-1,-2.867935E-1,-2.7502583E-2,1.7215846E-1,-3.1906617E-1,-1.7408371E-3,1.1183814E0,1.18858E0,-1.1590842E-1,-3.1992245E-1,-5.7122327E-2,-1.0369714E0,-2.7453762E-1],"categories":[],"categories_nodes":[],"categories_segments":[],"categories_sizes":[],"default_left":[0,0,0,0,0,0,0,0,0,0,0,0,0,0,0,0,0,0,0,0,0,0,0,0,0,0,0,0,0,0,0,0,0,0,0,0,0,0,0,0,0,0,0,0,0,0,0,0,0,0,0,0,0,0,0,0,0,0,0,0,0],"id":12,"left_children":[1,3,5,7,9,11,-1,13,15,17,19,21,23,25,27,29,31,33,-1,35,37,39,-1,-1,41,43,45,47,49,51,53,-1,55,-1,-1,57,-1,59,-1,-1,-1,-1,-1,-1,-1,-1,-1,-1,-1,-1,-1,-1,-1,-1,-1,-1,-1,-1,-1,-1,-1],"loss_changes":[4.9062313E1,5.7118217E1,6.563754E1,6.440668E1,2.9615627E1,1.53826065E1,0E0,5.397645E1,8.0333244E1,1.5646391E0,2.4935265E1,3.170774E1,7.7492676E0,1.22948944E2,5.694391E1,8.320939E1,2.1110474E2,1.7202541E-2,0E0,6.0207157E0,1.0922035E1,2.5770078E0,0E0,0E0,2.4705658E0,9.635046E1,1.7056184E2,1.0946101E2,8.440177E1,5.2697964E1,8.589967E1,0E0,3.8769478E1,0E0,0E0,2.4084783E-1,0E0,1.1355385E1,0E0,0E0,0E0,0E0,0E0,0E0,0E0,0E0,0E0,0E0,0E0,0E0,0E0,0E0,0E0,0E0,0E0,0E0,0E0,0E0,0E0,0E0,0E0],"parents":[2147483647,0,0,1,1,2,2,3,3,4,4,5,5,7,7,8,8,9,9,10,10,11,11,12,12,13,13,14,14,15,15,16,16,17,17,19,19,20,20,21,21,24,24,25,25,26,26,27,27,28,28,29,29,30,30,32,32,35,35,37,37],"right_children":[2,4,6,8,10,12,-1,14,16,18,20,22,24,26,28,30,32,34,-1,36,38,40,-1,-1,42,44,46,48,50,52,54,-1,56,-1,-1,58,-1,60,-1,-1,-1,-1,-1,-1,-1,-1,-1,-1,-1,-1,-1,-1,-1,-1,-1,-1,-1,-1,-1,-1,-1],"split_conditions":[4.7E1,2.18E1,2.2691425E1,2.8006058E1,2.3847115E1,3.1E1,-7.568583E-1,-7.249999E-1,3.6E1,2.9E1,1.8E1,5.2E1,3.5083332E0,-3.2666664E0,1E-1,2.4E1,1.3E1,2.4E1,2.5024283E-1,5.8854165E0,3.3E1,4.9E1,1.0817466E0,1.23300366E-1,1.7860418E1,-6.5812507E0,1.5E0,1.7304173E2,3.158333E0,9.999999E0,4.404166E0,3.7998002E0,2.3000002E0,-5.576172E-2,-4.8245434E-3,3E0,4.208522E-1,2.6717722E1,-1.5394452E0,-3.6335852E-2,-6.6584706E-1,1.3025258E0,4.655819E-1,3.8280663E-1,-3.550496E-1,1.2544647E-1,1.2717966E0,-4.54798E-2,3.850578E-1,-2.867935E-1,-2.7502583E-2,1.7215846E-1,-3.1906617E-1,-1.7408371E-3,1.1183814E0,1.18858E0,-1.1590842E-1,-3.1992245E-1,-5.7122327E-2,-1.0369714E0,-2.7453762E-1],"split_indices":[0,4,5,5,5,1,0,3,1,1,2,0,3,3,4,0,0,0,0,3,0,0,0,0,3,3,4,6,3,4,3,0,4,0,0,0,0,5,0,0,0,0,0,0,0,0,0,0,0,0,0,0,0,0,0,0,0,0,0,0,0],"split_type":[0,0,0,0,0,0,0,0,0,0,0,0,0,0,0,0,0,0,0,0,0,0,0,0,0,0,0,0,0,0,0,0,0,0,0,0,0,0,0,0,0,0,0,0,0,0,0,0,0,0,0,0,0,0,0,0,0,0,0,0,0],"sum_hessian":[1.224E3,1.211E3,1.3E1,1.193E3,1.8E1,1.1E1,2E0,1.075E3,1.18E2,5E0,1.3E1,3E0,8E0,1.18E2,9.57E2,1.09E2,9E0,3E0,2E0,3E0,1E1,2E0,1E0,1E0,7E0,6.7E1,5.1E1,2.47E2,7.1E2,8.5E1,2.4E1,1E0,8E0,2E0,1E0,2E0,1E0,8E0,2E0,1E0,1E0,5E0,2E0,2.4E1,4.3E1,3.4E1,1.7E1,1.71E2,7.6E1,1.4E2,5.7E2,5.6E1,2.9E1,1.1E1,1.3E1,2E0,6E0,1E0,1E0,3E0,5E0],"tree_param":{"num_deleted":"0","num_feature":"7","num_nodes":"61","size_leaf_vector":"1"}},{"base_weights":[2.6656955E-2,1.9542469E-1,-2.0406546E-1,1.1244769E-1,2.0669565E0,-3.3905406E0,-1.6639896E-1,-1.3424139E0,1.3260874E-1,3.21915E0,-1.503969E0,-8.360651E-1,-1.6998985E0,7.4944855E-3,-8.3415484E-1,8.308436E-2,1.8433434E0,-9.990406E-2,5.3599634E0,1.9141294E-1,-2.3243136E0,-5.368853E-2,-2.9863372E-1,4.4625692E-2,-1.506028E0,-1.4299817E0,7.229394E-1,1.3936238E-1,-1.819931E0,2.1693747E0,7.8410465E-1,-9.2853314E-1,1.1036637E0,-6.1226064E-1,6.0862484E0,-6.2124836E-1,-1.1460888E0,7.954987E-3,2.2344394E0,-2.0064929E0,7.227927E-1,2.4628696E0,-7.5247025E-1,2.953031E-2,1.0096462E0,1.8154822E-1,-8.1877834E-1,8.3815545E-1,-7.458252E-1,2.9708207E-1,-6.158947E-1,2.3182588E0,5.7440805E-1,-2.7519938E-1,4.005003E-2,3.880429E-1,-3.5143275E-2,-5.190114E-1,-1.6540406E0,-5.733082E-1,1.4275191E0,8.6106545E-1,3.755951E-3,-6.9684285E-1,5.4681045E-1],"categories":[],"categories_nodes":[],"categories_segments":[],"categories_sizes":[],"default_left":[0,0,0,0,0,0,0,0,0,0,0,0,0,0,0,0,0,0,0,0,0,0,0,0,0,0,0,0,0,0,0,0,0,0,0,0,0,0,0,0,0,0,0,0,0,0,0,0,0,0,0,0,0,0,0,0,0,0,0,0,0,0,0,0,0],"id":13,"left_children":[1,3,5,7,9,11,13,-1,15,17,19,21,-1,23,25,27,29,31,33,-1,35,-1,-1,37,-1,39,41,43,45,-1,47,49,-1,-1,51,53,-1,55,-1,57,59,61,63,-1,-1,-1,-1,-1,-1,-1,-1,-1,-1,-1,-1,-1,-1,-1,-1,-1,-1,-1,-1,-1,-1],"loss_changes":[4.7739536E1,1.0971579E2,6.1607925E1,6.3388664E1,1.282734E2,3.0143234E1,5.9574978E1,0E0,5.7204376E1,1.6396143E2,1.5540516E1,2.407713E-1,0E0,7.638963E1,9.9376205E1,7.0831154E1,1.0276443E2,3.4728054E1,8.767279E1,0E0,1.2913181E1,0E0,0E0,1.101664E2,0E0,9.701488E1,7.886653E1,8.430563E1,4.3550606E1,0E0,1.18674E2,2.1451414E1,0E0,0E0,7.421121E1,1.0163361E0,0E0,6.528271E1,0E0,4.9602295E1,1.8978735E2,1.3938118E1,7.2979965E1,0E0,0E0,0E0,0E0,0E0,0E0,0E0,0E0,0E0,0E0,0E0,0E0,0E0,0E0,0E0,0E0,0E0,0E0,0E0,0E0,0E0,0E0],"parents":[2147483647,0,0,1,1,2,2,3,3,4,4,5,5,6,6,8,8,9,9,10,10,11,11,13,13,14,14,15,15,16,16,17,17,18,18,20,20,23,23,25,25,26,26,27,27,28,28,30,30,31,31,34,34,35,35,37,37,39,39,40,40,41,41,42,42],"right_children":[2,4,6,8,10,12,14,-1,16,18,20,22,-1,24,26,28,30,32,34,-1,36,-1,-1,38,-1,40,42,44,46,-1,48,50,-1,-1,52,54,-1,56,-1,58,60,62,64,-1,-1,-1,-1,-1,-1,-1,-1,-1,-1,-1,-1,-1,-1,-1,-1,-1,-1,-1,-1,-1,-1],"split_conditions":[9.364583E0,8.764584E0,9.585417E0,3.641083E0,2.877926E2,2.1E1,2.9E1,-1.3424139E0,3.135017E2,2.1E1,1.3138765E1,2E0,-1.6998985E0,4.4E1,3.7E1,3.0131723E2,3.1482257E2,2.6566318E2,9.779817E0,1.9141294E-1,2.3E1,-5.368853E-2,-2.9863372E-1,4E1,-1.506028E0,3.0008005E2,4.1E1,4.6E1,1.8E1,2.1693747E0,6.0750003E0,1.2058349E2,1.1036637E0,-6.1226064E-1,2.645886E2,2.1E1,-1.1460888E0,5.4197514E1,2.2344394E0,2.9153366E2,1.7238699E1,4E1,4.7E1,2.953031E-2,1.0096462E0,1.8154822E-1,-8.1877834E-1,8.3815545E-1,-7.458252E-1,2.9708207E-1,-6.158947E-1,2.3182588E0,5.7440805E-1,-2.7519938E-1,4.005003E-2,3.880429E-1,-3.5143275E-2,-5.190114E-1,-1.6540406E0,-5.733082E-1,1.4275191E0,8.6106545E-1,3.755951E-3,-6.9684285E-1,5.4681045E-1],"split_indices":[3,3,3,6,6,1,1,0,6,2,5,0,0,0,0,6,6,6,5,0,0,0,0,0,0,6,0,0,2,0,3,6,0,0,6,0,0,6,0,6,5,2,0,0,0,0,0,0,0,0,0,0,0,0,0,0,0,0,0,0,0,0,0,0,0],"split_type":[0,0,0,0,0,0,0,0,0,0,0,0,0,0,0,0,0,0,0,0,0,0,0,0,0,0,0,0,0,0,0,0,0,0,0,0,0,0,0,0,0,0,0,0,0,0,0,0,0,0,0,0,0,0,0,0,0,0,0,0,0,0,0,0,0],"sum_hessian":[1.224E3,7.07E2,5.17E2,6.78E2,2.9E1,5E0,5.12E2,2E0,6.76E2,2.2E1,7E0,3E0,2E0,4.07E2,1.05E2,6.58E2,1.8E1,9E0,1.3E1,2E0,5E0,1E0,2E0,4.05E2,2E0,7.6E1,2.9E1,6.4E2,1.8E1,2E0,1.6E1,8E0,1E0,1E0,1.2E1,3E0,2E0,4.04E2,1E0,6E1,1.6E1,1.3E1,1.6E1,6.33E2,7E0,5E0,1.3E1,1E1,6E0,3E0,5E0,8E0,4E0,2E0,1E0,3.5E1,3.69E2,5.7E1,3E0,1E1,6E0,1.1E1,2E0,1E1,6E0],"tree_param":{"num_deleted":"0","num_feature":"7","num_nodes":"65","size_leaf_vector":"1"}},{"base_weights":[1.9983936E-2,-1.12284794E-1,2.2763446E-1,-6.745521E-2,-3.4184458E0,8.7308145E-1,-2.0270705E-1,-9.811228E-2,2.2490005E0,2.8101522E-1,-4.624326E0,-9.963105E-1,1.1606183E0,-1.4769694E0,-2.309704E-3,-1.7214214E-2,-1.0288339E0,-1.470153E0,-4.036563E-1,-1.669922E0,7.4061826E-2,-1.9220526E0,1.3084217E0,-3.801633E0,3.054761E-1,3.359686E0,-1.1344051E-1,-5.590339E-2,3.71046E0,-3.36137E0,-6.5019685E-1,-7.3959684E-1,-3.0971978E0,-3.970239E-1,5.3165764E-1,7.46089E-1,-2.9071925E0,3.289421E0,9.4921285E-1,-1.9962542E0,-2.715074E0,-1.7111701E0,9.607206E-1,4.53372E-2,1.1389389E0,1.6809561E0,-2.3099537E-1,4.1099258E-2,-1.493674E-1,1.4847319E0,-5.5821276E-1,-3.7886405E-1,-1.3103664E0,-4.3973327E-1,3.345486E-1,1.7172097E-1,-2.7841115E-1,-1.101794E0,-3.2993034E-2,-6.6831835E-2,4.5911667E-1,-4.5856342E-1,-1.2707624E0,1.3273091E0,-2.5584045E-1,1.3249669E0,2.3494722E-1,-2.9818222E-1,-1.2882648E0,-8.520241E-2,-5.819403E-1,5.888465E-1,-1.6117752E-1,-5.0397636E-3,6.320385E-1,-7.82639E-1,-1.5389015E-2],"categories":[],"categories_nodes":[],"categories_segments":[],"categories_sizes":[],"default_left":[0,0,0,0,0,0,0,0,0,0,0,0,0,0,0,0,0,0,0,0,0,0,0,0,0,0,0,0,0,0,0,0,0,0,0,0,0,0,0,0,0,0,0,0,0,0,0,0,0,0,0,0,0,0,0,0,0,0,0,0,0,0,0,0,0,0,0,0,0,0,0,0,0,0,0,0,0],"id":14,"left_children":[1,3,5,7,9,11,13,15,-1,-1,17,19,21,23,25,27,29,-1,-1,31,33,35,37,39,41,43,45,47,49,51,53,55,57,-1,59,-1,61,63,65,-1,67,69,71,-1,-1,73,75,-1,-1,-1,-1,-1,-1,-1,-1,-1,-1,-1,-1,-1,-1,-1,-1,-1,-1,-1,-1,-1,-1,-1,-1,-1,-1,-1,-1,-1,-1],"loss_changes":[3.3671005E1,1.1078156E2,1.3266975E2,1.7233696E2,5.6849762E1,1.0382248E2,7.328457E1,5.554895E1,0E0,0E0,6.506653E-1,1.8870068E1,7.814934E1,1.6276115E2,9.341282E1,9.827745E1,4.9922325E1,0E0,0E0,1.8954609E1,7.7378674E0,4.1978058E1,1.1002084E2,3.4624237E1,3.203607E1,1.0637672E1,5.1435783E1,5.7533363E1,5.7513817E1,1.1381226E1,7.6503784E1,3.250783E0,9.910057E0,0E0,7.1221876E0,0E0,6.347767E0,1.1660153E2,7.484607E1,0E0,3.3782593E1,1.4068413E0,2.8074816E1,0E0,0E0,1.0879944E1,9.7287766E1,0E0,0E0,0E0,0E0,0E0,0E0,0E0,0E0,0E0,0E0,0E0,0E0,0E0,0E0,0E0,0E0,0E0,0E0,0E0,0E0,0E0,0E0,0E0,0E0,0E0,0E0,0E0,0E0,0E0,0E0],"parents":[2147483647,0,0,1,1,2,2,3,3,4,4,5,5,6,6,7,7,10,10,11,11,12,12,13,13,14,14,15,15,16,16,19,19,20,20,21,21,22,22,23,23,24,24,25,25,26,26,27,27,28,28,29,29,30,30,31,31,32,32,34,34,36,36,37,37,38,38,40,40,41,41,42,42,45,45,46,46],"right_children":[2,4,6,8,10,12,14,16,-1,-1,18,20,22,24,26,28,30,-1,-1,32,34,36,38,40,42,44,46,48,50,52,54,56,58,-1,60,-1,62,64,66,-1,68,70,72,-1,-1,74,76,-1,-1,-1,-1,-1,-1,-1,-1,-1,-1,-1,-1,-1,-1,-1,-1,-1,-1,-1,-1,-1,-1,-1,-1,-1,-1,-1,-1,-1,-1],"split_conditions":[2.8E0,2.7E0,5.7E0,3.4582962E1,9.504273E0,1.2E1,6.5999994E0,2.4216522E1,2.2490005E0,2.8101522E-1,2.6E1,2.5616217E2,5.4197514E1,2.1E1,6.7999997E0,2.3584808E1,-4.145833E-1,-1.470153E0,-4.036563E-1,1E1,1.3138765E1,1.2E1,1.2697941E2,1.9239801E1,1.7E1,1.2291666E0,8.813526E1,2.6E1,3.3E1,2.6E1,2.4E1,4.5874996E0,2.1E1,-3.970239E-1,1.2099999E1,7.46089E-1,2.6E1,2.3510508E1,-2.23125E0,-1.9962542E0,2.3444265E1,2.2E1,2.7250842E2,4.53372E-2,1.1389389E0,1E1,1.7015886E2,4.1099258E-2,-1.493674E-1,1.4847319E0,-5.5821276E-1,-3.7886405E-1,-1.3103664E0,-4.3973327E-1,3.345486E-1,1.7172097E-1,-2.7841115E-1,-1.101794E0,-3.2993034E-2,-6.6831835E-2,4.5911667E-1,-4.5856342E-1,-1.2707624E0,1.3273091E0,-2.5584045E-1,1.3249669E0,2.3494722E-1,-2.9818222E-1,-1.2882648E0,-8.520241E-2,-5.819403E-1,5.888465E-1,-1.6117752E-1,-5.0397636E-3,6.320385E-1,-7.82639E-1,-1.5389015E-2],"split_indices":[4,4,4,5,5,0,4,5,0,0,1,6,6,2,4,5,3,0,0,0,5,1,6,5,1,3,6,2,0,2,2,3,1,0,3,0,0,5,3,0,5,2,6,0,0,0,6,0,0,0,0,0,0,0,0,0,0,0,0,0,0,0,0,0,0,0,0,0,0,0,0,0,0,0,0,0,0],"split_type":[0,0,0,0,0,0,0,0,0,0,0,0,0,0,0,0,0,0,0,0,0,0,0,0,0,0,0,0,0,0,0,0,0,0,0,0,0,0,0,0,0,0,0,0,0,0,0,0,0,0,0,0,0,0,0,0,0,0,0,0,0,0,0,0,0,0,0,0,0,0,0,0,0,0,0,0,0],"sum_hessian":[1.224E3,7.48E2,4.76E2,7.39E2,9E0,1.9E2,2.86E2,7.37E2,2E0,2E0,7E0,2.5E1,1.65E2,3.8E1,2.48E2,6.79E2,5.8E1,6E0,1E0,1.5E1,1E1,7E0,1.58E2,1.6E1,2.2E1,7E0,2.41E2,6.73E2,6E0,7E0,5.1E1,1E1,5E0,2E0,8E0,1E0,6E0,2.3E1,1.35E2,3E0,1.3E1,5E0,1.7E1,1E0,6E0,1.4E1,2.27E2,4.69E2,2.04E2,5E0,1E0,3E0,4E0,3.5E1,1.6E1,1E0,9E0,4E0,1E0,5E0,3E0,4E0,2E0,1.8E1,5E0,5E0,1.3E2,7E0,6E0,1E0,4E0,1E1,7E0,3E0,1.1E1,1.5E1,2.12E2],"tree_param":{"num_deleted":"0","num_feature":"7","num_nodes":"77","size_leaf_vector":"1"}},{"base_weights":[1.1762657E-2,9.500229E-1,-1.5819937E-2,4.1864777E-1,2.2365959E0,1.1754827E-1,-2.055393E-1,-1.031657E0,1.0072683E0,1.2778416E0,1.1984429E0,9.457073E-3,8.891592E-1,1.578279E0,-2.6108688E-1,-2.246596E0,7.449312E-1,2.1004686E0,2.1261735E-2,-1.9124795E-1,1.55179E0,6.3537925E-2,-2.1580129E0,6.668562E-1,6.8172555E0,-1.845479E-1,3.143821E0,-7.116228E-1,1.1011967E-2,-1.9466402E-1,-7.4514157E-1,3.4693354E-1,-7.34416E-2,3.1567892E-1,2.5653117E0,1.6415296E0,-7.915299E-1,5.263164E-1,5.0430395E-2,2.8842732E-2,2.6317139E0,-3.0511775E0,2.385517E-1,2.6955044E0,1.4988749E-1,1.0795841E-1,2.9598067E0,-6.2607795E-1,4.3592435E-1,1.1585535E0,1.9794999E-1,-8.742632E-1,1.0100832E0,1.7931855E0,-1.5813957E-1,5.725159E-1,-4.3046036E-1,8.8464314E-1,3.9648056E-2,6.641093E-2,6.123379E-1,-4.1173354E-1,-5.054753E-2,1.09112255E-1,-7.041332E-2,-6.313171E-2,1.0842514E0,-6.362045E-1,-1.4476821E0,5.4062635E-1,-4.2135048E-1,-2.1178699E-1,1.5441369E0,-9.402302E-1,1.9199626E-1,1.3277608E-1,-2.6338598E-1,-3.55678E-1,9.4793886E-2,-5.4471276E-4,8.090653E-1,8.6362237E-1,-3.027472E-1,-1.6630655E-2,-5.7834023E-1],"categories":[],"categories_nodes":[],"categories_segments":[],"categories_sizes":[],"default_left":[0,0,0,0,0,0,0,0,0,0,0,0,0,0,0,0,0,0,0,0,0,0,0,0,0,0,0,0,0,0,0,0,0,0,0,0,0,0,0,0,0,0,0,0,0,0,0,0,0,0,0,0,0,0,0,0,0,0,0,0,0,0,0,0,0,0,0,0,0,0,0,0,0,0,0,0,0,0,0,0,0,0,0,0,0],"id":15,"left_children":[1,3,5,7,9,11,13,15,17,-1,19,21,23,25,27,29,31,33,35,-1,37,39,41,43,45,47,49,51,53,-1,-1,-1,-1,55,57,59,61,-1,-1,63,65,67,69,71,73,-1,-1,75,-1,-1,-1,77,79,81,83,-1,-1,-1,-1,-1,-1,-1,-1,-1,-1,-1,-1,-1,-1,-1,-1,-1,-1,-1,-1,-1,-1,-1,-1,-1,-1,-1,-1,-1,-1],"loss_changes":[3.1717602E1,2.2991508E1,3.0159477E1,2.3234814E1,1.5895813E1,5.8374634E1,4.916275E1,1.8941132E1,2.0435493E1,0E0,6.179037E0,7.222658E1,1.08787544E2,4.197688E1,5.860599E1,2.832718E-1,1.9122655E0,6.657009E0,1.5785661E1,0E0,1.6674118E0,5.347522E1,3.2835762E1,8.769078E1,5.5510864E1,6.694241E0,1.1720314E1,5.1286507E1,9.0419334E1,0E0,0E0,0E0,0E0,1.1102608E1,6.1420555E0,1.818121E0,2.6642132E0,0E0,0E0,5.250877E1,2.3098911E1,7.928528E0,1.53759E1,1.453981E2,1.1145061E2,0E0,0E0,2.2727628E0,0E0,0E0,0E0,6.1516747E1,2.731485E1,8.199968E1,4.969301E1,0E0,0E0,0E0,0E0,0E0,0E0,0E0,0E0,0E0,0E0,0E0,0E0,0E0,0E0,0E0,0E0,0E0,0E0,0E0,0E0,0E0,0E0,0E0,0E0,0E0,0E0,0E0,0E0,0E0,0E0],"parents":[2147483647,0,0,1,1,2,2,3,3,4,4,5,5,6,6,7,7,8,8,10,10,11,11,12,12,13,13,14,14,15,15,16,16,17,17,18,18,20,20,21,21,22,22,23,23,24,24,25,25,26,26,27,27,28,28,33,33,34,34,35,35,36,36,39,39,40,40,41,41,42,42,43,43,44,44,47,47,51,51,52,52,53,53,54,54],"right_children":[2,4,6,8,10,12,14,16,18,-1,20,22,24,26,28,30,32,34,36,-1,38,40,42,44,46,48,50,52,54,-1,-1,-1,-1,56,58,60,62,-1,-1,64,66,68,70,72,74,-1,-1,76,-1,-1,-1,78,80,82,84,-1,-1,-1,-1,-1,-1,-1,-1,-1,-1,-1,-1,-1,-1,-1,-1,-1,-1,-1,-1,-1,-1,-1,-1,-1,-1,-1,-1,-1,-1],"split_conditions":[7.24486E0,3.1E1,9.770833E0,7.9045975E1,5.8603754E0,7.9812493E0,3.368998E1,2.1E1,1.4566852E2,1.2778416E0,9.855764E1,7.6708336E0,3.34054E1,1.9E1,1.630724E2,1.4E1,2.5E1,1.7E1,1.9E1,-1.9124795E-1,1E-1,4.6E1,2.3E1,1E-1,1.3E1,4.4E0,3E1,1.9627085E1,2.125857E2,-1.9466402E-1,-7.4514157E-1,3.4693354E-1,-7.34416E-2,1.6E1,2.7E1,2.1E1,1.6101816E2,5.263164E-1,5.0430395E-2,2.1E1,1.6E1,2.5616217E2,1E-1,8.271948E1,1.3E0,1.0795841E-1,2.9598067E0,3.641083E0,4.3592435E-1,1.1585535E0,1.9794999E-1,3.3000002E0,3.1E1,2.8E1,2.8137634E1,5.725159E-1,-4.3046036E-1,8.8464314E-1,3.9648056E-2,6.641093E-2,6.123379E-1,-4.1173354E-1,-5.054753E-2,1.09112255E-1,-7.041332E-2,-6.313171E-2,1.0842514E0,-6.362045E-1,-1.4476821E0,5.4062635E-1,-4.2135048E-1,-2.1178699E-1,1.5441369E0,-9.402302E-1,1.9199626E-1,1.3277608E-1,-2.6338598E-1,-3.55678E-1,9.4793886E-2,-5.4471276E-4,8.090653E-1,8.6362237E-1,-3.027472E-1,-1.6630655E-2,-5.7834023E-1],"split_indices":[5,0,3,6,5,3,6,2,6,0,6,3,5,0,6,1,1,0,2,0,4,2,2,4,0,4,0,3,6,0,0,0,0,1,1,0,6,0,0,1,0,6,4,6,4,0,0,6,0,0,0,4,2,2,5,0,0,0,0,0,0,0,0,0,0,0,0,0,0,0,0,0,0,0,0,0,0,0,0,0,0,0,0,0,0],"split_type":[0,0,0,0,0,0,0,0,0,0,0,0,0,0,0,0,0,0,0,0,0,0,0,0,0,0,0,0,0,0,0,0,0,0,0,0,0,0,0,0,0,0,0,0,0,0,0,0,0,0,0,0,0,0,0,0,0,0,0,0,0,0,0,0,0,0,0,0,0,0,0,0,0,0,0,0,0,0,0,0,0,0,0,0,0],"sum_hessian":[1.224E3,3.4E1,1.19E3,2.5E1,9E0,6.99E2,4.91E2,7E0,1.8E1,2E0,7E0,6.14E2,8.5E1,1.4E1,4.77E2,4E0,3E0,8E0,1E1,1E0,6E0,6E2,1.4E1,8.3E1,2E0,7E0,7E0,1.79E2,2.98E2,1E0,3E0,2E0,1E0,2E0,6E0,3E0,7E0,5E0,1E0,5.93E2,7E0,1E1,4E0,1.6E1,6.7E1,1E0,1E0,6E0,1E0,5E0,2E0,1.64E2,1.5E1,2.5E1,2.73E2,1E0,1E0,5E0,1E0,1E0,2E0,3E0,4E0,2.61E2,3.32E2,2E0,5E0,8E0,2E0,2E0,2E0,7E0,9E0,8E0,5.9E1,1E0,5E0,1.3E2,3.4E1,1E1,5E0,1.8E1,7E0,2.59E2,1.4E1],"tree_param":{"num_deleted":"0","num_feature":"7","num_nodes":"85","size_leaf_vector":"1"}},{"base_weights":[1.4113412E-2,-2.842647E-1,1.1119202E-1,-3.3617622E-1,4.9843354E0,7.1517605E-1,3.131247E-2,-3.6960855E-1,1.4439993E0,2.3096325E-1,2.011988E0,8.4510267E-1,-1.2341865E0,-3.482766E-2,9.494897E-1,2.5219226E-1,-6.356012E-1,-9.087915E-1,1.1670038E0,-2.5640774E-1,2.1850428E-1,2.3426929E0,-2.0444665E0,-1.536082E-1,1.3745438E0,-1.1613468E0,-5.0925106E-2,-3.6852274E0,2.2897552E-1,6.002465E-1,3.000623E0,-8.628203E-1,4.3307982E-2,1.5168835E0,7.018995E-3,1.8225362E0,3.238273E0,-3.1665084E0,1.5061443E0,3.2392297E-2,-1.025648E0,1.2631879E0,-1.2281607E-2,-4.944328E-2,-5.8774227E-1,-7.35036E-1,5.529968E-2,-4.7136143E-1,-1.3712523E0,2.2268848E-1,-5.188563E-1,6.5461487E-1,1.5511496E-2,1.1147002E0,-9.195557E-3,-7.823693E-2,-6.8583703E-1,1.6294803E-1,-2.9035735E-1,3.430135E-1,1.3949265E0,-4.1173467E-1,4.6597112E-2,8.7396187E-1,-5.320937E-2,-2.255394E-1,-1.3273443E0,5.534469E-1,2.271452E-2],"categories":[],"categories_nodes":[],"categories_segments":[],"categories_sizes":[],"default_left":[0,0,0,0,0,0,0,0,0,0,0,0,0,0,0,0,0,0,0,0,0,0,0,0,0,0,0,0,0,0,0,0,0,0,0,0,0,0,0,0,0,0,0,0,0,0,0,0,0,0,0,0,0,0,0,0,0,0,0,0,0,0,0,0,0,0,0,0,0],"id":16,"left_children":[1,3,5,7,9,11,13,15,-1,-1,-1,17,-1,19,21,23,25,27,29,31,33,35,37,39,41,43,45,47,49,51,53,55,57,59,61,63,-1,65,67,-1,-1,-1,-1,-1,-1,-1,-1,-1,-1,-1,-1,-1,-1,-1,-1,-1,-1,-1,-1,-1,-1,-1,-1,-1,-1,-1,-1,-1,-1],"loss_changes":[3.5515118E1,8.399938E1,4.460513E1,5.3254913E1,1.661229E1,7.1239426E1,4.970887E1,4.9447834E1,0E0,0E0,0E0,6.090609E1,0E0,4.294188E1,2.3420493E2,4.1201714E1,6.4185555E1,5.454575E1,9.17284E1,7.419194E1,9.80173E1,1.4738E2,7.648003E1,5.7595448E1,9.651857E1,8.713046E1,5.689446E1,2.1793213E0,1.4353159E1,6.06251E1,4.56313E1,1.1508152E2,1.3901443E2,5.3190773E1,6.3224297E1,8.122227E1,0E0,3.9200638E1,2.2825975E0,0E0,0E0,0E0,0E0,0E0,0E0,0E0,0E0,0E0,0E0,0E0,0E0,0E0,0E0,0E0,0E0,0E0,0E0,0E0,0E0,0E0,0E0,0E0,0E0,0E0,0E0,0E0,0E0,0E0,0E0],"parents":[2147483647,0,0,1,1,2,2,3,3,4,4,5,5,6,6,7,7,11,11,13,13,14,14,15,15,16,16,17,17,18,18,19,19,20,20,21,21,22,22,23,23,24,24,25,25,26,26,27,27,28,28,29,29,30,30,31,31,32,32,33,33,34,34,35,35,37,37,38,38],"right_children":[2,4,6,8,10,12,14,16,-1,-1,-1,18,-1,20,22,24,26,28,30,32,34,36,38,40,42,44,46,48,50,52,54,56,58,60,62,64,-1,66,68,-1,-1,-1,-1,-1,-1,-1,-1,-1,-1,-1,-1,-1,-1,-1,-1,-1,-1,-1,-1,-1,-1,-1,-1,-1,-1,-1,-1,-1,-1],"split_conditions":[1.7E1,3.4163538E2,1.6E1,4.124161E1,1.4E1,3.4582962E1,3.0625402E1,1.1771291E2,1.4439993E0,2.3096325E-1,2.011988E0,1.4E1,-1.2341865E0,2.5E1,2.7E1,1.0079971E2,3.3E0,1.2E1,2.6805853E2,1.3608762E1,2.1E1,3.5E1,3.8E1,9.855764E1,1.1261107E2,1.2E1,8.541671E-2,1E1,1.5520833E1,1E-1,3.1E1,2.5161465E2,3.8000002E0,2.9E1,1.7E1,1.17E1,3.238273E0,7.5000005E0,5.7312503E0,3.2392297E-2,-1.025648E0,1.2631879E0,-1.2281607E-2,-4.944328E-2,-5.8774227E-1,-7.35036E-1,5.529968E-2,-4.7136143E-1,-1.3712523E0,2.2268848E-1,-5.188563E-1,6.5461487E-1,1.5511496E-2,1.1147002E0,-9.195557E-3,-7.823693E-2,-6.8583703E-1,1.6294803E-1,-2.9035735E-1,3.430135E-1,1.3949265E0,-4.1173467E-1,4.6597112E-2,8.7396187E-1,-5.320937E-2,-2.255394E-1,-1.3273443E0,5.534469E-1,2.271452E-2],"split_indices":[1,6,2,5,0,5,5,6,0,0,0,0,0,2,2,6,4,2,6,5,1,1,2,6,6,1,3,0,3,4,0,6,4,0,0,4,0,4,3,0,0,0,0,0,0,0,0,0,0,0,0,0,0,0,0,0,0,0,0,0,0,0,0,0,0,0,0,0,0],"split_type":[0,0,0,0,0,0,0,0,0,0,0,0,0,0,0,0,0,0,0,0,0,0,0,0,0,0,0,0,0,0,0,0,0,0,0,0,0,0,0,0,0,0,0,0,0,0,0,0,0,0,0,0,0,0,0,0,0,0,0,0,0,0,0,0,0,0,0,0,0],"sum_hessian":[1.224E3,3E2,9.24E2,2.98E2,2E0,1.07E2,8.17E2,2.97E2,1E0,1E0,1E0,1.05E2,2E0,7.63E2,5.4E1,8.9E1,2.08E2,1.6E1,8.9E1,4.07E2,3.56E2,3.7E1,1.7E1,6.6E1,2.3E1,1.09E2,9.9E1,4E0,1.2E1,6.9E1,2E1,1.34E2,2.73E2,4.9E1,3.07E2,3.6E1,1E0,1.3E1,4E0,6.2E1,4E0,7E0,1.6E1,4.9E1,6E1,8E0,9.1E1,2E0,2E0,1E1,2E0,1.7E1,5.2E1,1.6E1,4E0,9.5E1,3.9E1,1.83E2,9E1,4.5E1,4E0,2.9E1,2.78E2,2.3E1,1.3E1,5E0,8E0,3E0,1E0],"tree_param":{"num_deleted":"0","num_feature":"7","num_nodes":"69","size_leaf_vector":"1"}},{"base_weights":[1.36296665E-2,2.8226727E-1,-5.6583896E-2,-1.8646827E-1,1.200105E0,-1.4222158E0,1.5897218E-2,4.2608574E-2,-9.0267426E-1,1.7175785E0,-7.150693E-1,-2.0969813E0,1.8097395E0,7.9366213E-1,-3.9032824E-2,-1.07490614E-1,2.0558746E0,-7.03664E-2,-2.34065E0,2.4415247E0,3.7473008E-1,-1.8993556E0,1.150744E0,-1.6550167E0,-2.1430585E0,-2.27899E-1,2.6523778E0,2.0184317E0,1.00197315E-1,-5.212091E-1,1.1271417E-1,-7.3943746E-1,4.6689075E-1,3.141467E-2,1.3735788E0,-4.5020598E-1,9.355257E-1,-3.8266735E0,-5.6204534E-1,1.8111755E0,5.514632E0,1.1635367E0,-3.0132034E0,2.0530288E-1,-2.3408177E0,7.914122E-1,-2.692421E-1,7.8370595E-1,-1.9562894E0,-1.5253288E-1,3.2639217E0,9.5807225E-1,3.4436097E0,-8.979586E-2,1.8325849E0,5.354734E-1,-7.619749E-1,-1.6378568E0,1.5331332E-1,-6.2033486E-2,-9.8265713E-1,6.829353E-1,2.6889166E-2,-2.5768113E-1,6.7247605E-1,2.0708876E-2,-7.6228625E-1,-7.4074113E-1,-1.5798568E0,7.9569435E-1,-6.2266535E-1,-3.416495E-1,6.5751904E-1,1.7736927E0,4.6928588E-1,1.3827925E0,-6.0404636E-2,-1.2905263E0,3.2114983E-1,1.9242097E-1,-1.0003467E-1,-7.8515524E-1,2.19718E-2,-4.5943224E-1,3.248112E-1,-3.246128E-1,-8.763497E-1,2.51017E-1,1.0746051E0,8.0301416E-1,-1.9964941E-1,-2.9631902E-2,1.1696262E0,1.2135139E-1,-4.3945733E-1,1.5932494E-1,6.2681735E-1,-8.709351E-2,1.1315039E0,-3.4230116E-1,1.1256103E-1,5.33479E-1,-6.026653E-1,2.9385662E-1,1.670344E-2],"categories":[],"categories_nodes":[],"categories_segments":[],"categories_sizes":[],"default_left":[0,0,0,0,0,0,0,0,0,0,0,0,0,0,0,0,0,0,0,0,0,0,0,0,0,0,0,0,0,0,0,0,0,0,0,0,0,0,0,0,0,0,0,0,0,0,0,0,0,0,0,0,0,0,0,0,0,0,0,0,0,0,0,0,0,0,0,0,0,0,0,0,0,0,0,0,0,0,0,0,0,0,0,0,0,0,0,0,0,0,0,0,0,0,0,0,0,0,0,0,0,0,0,0,0],"id":17,"left_children":[1,3,5,7,9,11,13,15,17,19,21,23,25,27,29,31,33,35,37,39,41,43,45,47,-1,-1,49,51,53,55,57,59,61,63,-1,65,-1,67,69,71,73,75,77,79,81,-1,83,-1,85,-1,87,89,91,93,95,97,99,101,103,-1,-1,-1,-1,-1,-1,-1,-1,-1,-1,-1,-1,-1,-1,-1,-1,-1,-1,-1,-1,-1,-1,-1,-1,-1,-1,-1,-1,-1,-1,-1,-1,-1,-1,-1,-1,-1,-1,-1,-1,-1,-1,-1,-1,-1,-1],"loss_changes":[2.3121925E1,1.09500465E2,9.623363E1,2.7765654E1,8.645867E1,1.1065476E2,3.950672E1,3.9203445E1,4.8905678E1,6.51913E1,4.416916E1,7.9623535E1,2.1500614E1,5.1607166E1,6.3276592E1,4.4265633E1,4.5820488E1,3.410706E1,3.7494957E1,7.524579E1,7.0316574E1,1.16301E1,1.7605797E1,5.5250557E1,0E0,0E0,1.5190384E1,2.9947197E1,1.3330231E1,5.3071495E1,4.7016277E1,7.767314E1,4.348716E1,1.3732365E1,0E0,2.7315174E1,0E0,2.6306229E0,4.442463E1,4.515629E1,1.748169E0,9.969283E1,3.091531E1,9.1872466E-1,6.8633194E0,0E0,1.0190219E1,0E0,2.805017E1,0E0,1.6353226E0,4.084604E1,1.489576E1,2.574121E1,2.2729492E-1,1.05318985E2,7.3271095E1,2.2584435E1,5.189503E1,0E0,0E0,0E0,0E0,0E0,0E0,0E0,0E0,0E0,0E0,0E0,0E0,0E0,0E0,0E0,0E0,0E0,0E0,0E0,0E0,0E0,0E0,0E0,0E0,0E0,0E0,0E0,0E0,0E0,0E0,0E0,0E0,0E0,0E0,0E0,0E0,0E0,0E0,0E0,0E0,0E0,0E0,0E0,0E0,0E0,0E0],"parents":[2147483647,0,0,1,1,2,2,3,3,4,4,5,5,6,6,7,7,8,8,9,9,10,10,11,11,12,12,13,13,14,14,15,15,16,16,17,17,18,18,19,19,20,20,21,21,22,22,23,23,26,26,27,27,28,28,29,29,30,30,31,31,32,32,33,33,35,35,37,37,38,38,39,39,40,40,41,41,42,42,43,43,44,44,46,46,48,48,50,50,51,51,52,52,53,53,54,54,55,55,56,56,57,57,58,58],"right_children":[2,4,6,8,10,12,14,16,18,20,22,24,26,28,30,32,34,36,38,40,42,44,46,48,-1,-1,50,52,54,56,58,60,62,64,-1,66,-1,68,70,72,74,76,78,80,82,-1,84,-1,86,-1,88,90,92,94,96,98,100,102,104,-1,-1,-1,-1,-1,-1,-1,-1,-1,-1,-1,-1,-1,-1,-1,-1,-1,-1,-1,-1,-1,-1,-1,-1,-1,-1,-1,-1,-1,-1,-1,-1,-1,-1,-1,-1,-1,-1,-1,-1,-1,-1,-1,-1,-1,-1],"split_conditions":[9.69583E1,7.655135E1,1.0714563E2,2.8E1,1.2068751E1,3.3E1,8.709098E0,2.7E1,2.5E1,1.6215992E1,2.3E1,3.2E1,9.255571E0,1.495345E2,1.9103117E2,1.120625E1,5.593107E1,4E1,2.9E1,3.1E1,8E-1,1.1E1,1.7E1,-8.241666E0,-2.1430585E0,-2.27899E-1,2E1,8.049845E0,1.3818751E1,1.1483443E2,-2.916667E0,9.364583E0,1.1945834E1,2.8E1,1.3735788E0,3.2E1,9.355257E-1,1.1520833E1,3.1E1,1.4E1,3.7E1,-2.3916667E0,2.6E1,7E0,2.1659918E1,7.914122E-1,2.3E1,7.8370595E-1,1.687398E1,-1.5253288E-1,9.449572E0,7.24486E0,1.5E1,8.943749E0,2.1E1,3.2E1,2.7E0,7E0,1E-1,-6.2033486E-2,-9.8265713E-1,6.829353E-1,2.6889166E-2,-2.5768113E-1,6.7247605E-1,2.0708876E-2,-7.6228625E-1,-7.4074113E-1,-1.5798568E0,7.9569435E-1,-6.2266535E-1,-3.416495E-1,6.5751904E-1,1.7736927E0,4.6928588E-1,1.3827925E0,-6.0404636E-2,-1.2905263E0,3.2114983E-1,1.9242097E-1,-1.0003467E-1,-7.8515524E-1,2.19718E-2,-4.5943224E-1,3.248112E-1,-3.246128E-1,-8.763497E-1,2.51017E-1,1.0746051E0,8.0301416E-1,-1.9964941E-1,-2.9631902E-2,1.1696262E0,1.2135139E-1,-4.3945733E-1,1.5932494E-1,6.2681735E-1,-8.709351E-2,1.1315039E0,-3.4230116E-1,1.1256103E-1,5.33479E-1,-6.026653E-1,2.9385662E-1,1.670344E-2],"split_indices":[6,6,6,2,3,1,5,2,0,5,2,1,5,6,6,3,6,2,0,2,4,0,1,3,0,0,0,5,3,6,3,3,3,1,0,1,0,3,1,0,1,3,1,0,5,0,1,0,5,0,5,5,2,3,0,0,4,2,4,0,0,0,0,0,0,0,0,0,0,0,0,0,0,0,0,0,0,0,0,0,0,0,0,0,0,0,0,0,0,0,0,0,0,0,0,0,0,0,0,0,0,0,0,0,0],"split_type":[0,0,0,0,0,0,0,0,0,0,0,0,0,0,0,0,0,0,0,0,0,0,0,0,0,0,0,0,0,0,0,0,0,0,0,0,0,0,0,0,0,0,0,0,0,0,0,0,0,0,0,0,0,0,0,0,0,0,0,0,0,0,0,0,0,0,0,0,0,0,0,0,0,0,0,0,0,0,0,0,0,0,0,0,0,0,0,0,0,0,0,0,0,0,0,0,0,0,0,0,0,0,0,0,0],"sum_hessian":[1.224E3,2.53E2,9.71E2,1.68E2,8.5E1,4.8E1,9.23E2,1.28E2,4E1,6.7E1,1.8E1,4E1,8E0,6E1,8.63E2,1.2E2,8E0,2.6E1,1.4E1,4.3E1,2.4E1,1.1E1,7E0,3.8E1,2E0,2E0,6E0,2.1E1,3.9E1,2.06E2,6.57E2,5.7E1,6.3E1,5E0,3E0,2.4E1,2E0,7E0,7E0,3.7E1,6E0,2E1,4E0,2E0,9E0,3E0,4E0,2E0,3.6E1,1E0,5E0,1.3E1,8E0,3.6E1,3E0,3.8E1,1.68E2,1.4E1,6.43E2,4.8E1,9E0,1E1,5.3E1,4E0,1E0,2E1,4E0,5E0,2E0,2E0,5E0,4E0,3.3E1,5E0,1E0,5E0,1.5E1,3E0,1E0,1E0,1E0,8E0,1E0,2E0,2E0,2E1,1.6E1,1E0,4E0,6E0,7E0,1E0,7E0,2.7E1,9E0,1E0,2E0,3.1E1,7E0,1.26E2,4.2E1,1E0,1.3E1,6.7E1,5.76E2],"tree_param":{"num_deleted":"0","num_feature":"7","num_nodes":"105","size_leaf_vector":"1"}},{"base_weights":[1.2847144E-2,2.9646844E-2,-1.0008172E0,-2.731368E-2,6.885374E-1,-2.9103322E0,-3.415426E-1,2.7518954E-2,-1.2692167E0,1.7808651E0,6.07954E-2,-3.6974049E0,3.569384E-2,-8.712222E-2,-6.2367725E-1,-1.3818375E-2,2.4327412E0,1.2522421E0,-1.741778E0,3.6092367E0,5.364075E-1,4.65136E0,-1.697461E-1,-3.012226E-1,-1.278147E0,-4.43711E-1,2.4079052E-1,-2.948939E-1,7.787733E-2,3.0322623E0,-4.7268537E-1,5.584199E-2,1.4440565E0,1.0937163E0,-2.087214E0,2.4766002E0,2.7500267E0,1.1650076E0,-1.8338345E0,2.3822355E0,-2.8912327E-1,-2.1600301E0,2.7151132E-1,-2.1275795E-1,8.0539006E-1,-1.033652E-1,1.2122343E0,1.4361665E-1,-2.2060037E-2,1.6714077E0,2.855006E-1,1.9654113E-1,-2.8847915E-1,1.0668007E0,-5.199426E-1,-8.1680477E-1,-1.7681594E-1,4.0687963E-1,1.3974862E0,5.288091E-1,-2.2245719E-1,-7.399014E-1,-1.7701593E-1,-7.43445E-1,1.5317518E-1,1.4364979E0,2.448314E-2,2.131899E-1,-1.9169813E-1,1.6801931E-2,2.8321964E-1],"categories":[],"categories_nodes":[],"categories_segments":[],"categories_sizes":[],"default_left":[0,0,0,0,0,0,0,0,0,0,0,0,0,0,0,0,0,0,0,0,0,0,0,0,0,0,0,0,0,0,0,0,0,0,0,0,0,0,0,0,0,0,0,0,0,0,0,0,0,0,0,0,0,0,0,0,0,0,0,0,0,0,0,0,0,0,0,0,0,0,0],"id":18,"left_children":[1,3,5,7,9,11,13,15,17,19,21,23,-1,25,-1,27,29,31,33,35,37,39,41,-1,-1,-1,43,45,47,49,-1,51,-1,53,55,57,-1,59,61,-1,-1,63,65,67,69,-1,-1,-1,-1,-1,-1,-1,-1,-1,-1,-1,-1,-1,-1,-1,-1,-1,-1,-1,-1,-1,-1,-1,-1,-1,-1],"loss_changes":[2.0890509E1,4.5280888E1,2.418389E1,7.569048E1,6.571893E1,1.2361362E1,6.891284E0,1.0592174E2,5.8183685E1,7.770055E1,6.640512E1,1.7884369E0,0E0,7.2025347E0,0E0,2.7033506E1,4.8033394E1,3.3816925E1,4.1462082E1,6.5422714E1,3.4914993E1,6.3064262E1,5.328013E1,0E0,0E0,0E0,3.5003057E0,5.693849E1,4.804275E1,7.922316E1,0E0,4.8982015E0,0E0,4.0965725E1,3.266089E1,2.5456978E1,0E0,2.1818323E1,2.4782066E0,0E0,0E0,1.061063E1,4.249657E1,3.6027482E0,5.7065225E-1,0E0,0E0,0E0,0E0,0E0,0E0,0E0,0E0,0E0,0E0,0E0,0E0,0E0,0E0,0E0,0E0,0E0,0E0,0E0,0E0,0E0,0E0,0E0,0E0,0E0,0E0],"parents":[2147483647,0,0,1,1,2,2,3,3,4,4,5,5,6,6,7,7,8,8,9,9,10,10,11,11,13,13,15,15,16,16,17,17,18,18,19,19,20,20,21,21,22,22,26,26,27,27,28,28,29,29,31,31,33,33,34,34,35,35,37,37,38,38,41,41,42,42,43,43,44,44],"right_children":[2,4,6,8,10,12,14,16,18,20,22,24,-1,26,-1,28,30,32,34,36,38,40,42,-1,-1,-1,44,46,48,50,-1,52,-1,54,56,58,-1,60,62,-1,-1,64,66,68,70,-1,-1,-1,-1,-1,-1,-1,-1,-1,-1,-1,-1,-1,-1,-1,-1,-1,-1,-1,-1,-1,-1,-1,-1,-1,-1],"split_conditions":[2.18E1,1.1400001E1,4.7979164E0,9.4E0,1.8E1,3.1500004E1,5E1,3.4582962E1,1.3E1,1.3900002E1,1.17E1,3E0,3.569384E-2,1.4E1,-6.2367725E-1,1.7E1,7.2541676E0,2.1E1,1.5E1,3.5E1,2.905983E1,2.9E1,4.25625E0,-3.012226E-1,-1.278147E0,-4.43711E-1,2.5E1,3.4163538E2,2.1E1,2.4E1,-4.7268537E-1,1.08E1,1.4440565E0,2.5E1,1.0189584E1,9.8625E0,2.7500267E0,2.0699999E1,3.1035257E1,2.3822355E0,-2.8912327E-1,4.124161E1,4.7979164E0,1.9E1,2.3500002E1,-1.033652E-1,1.2122343E0,1.4361665E-1,-2.2060037E-2,1.6714077E0,2.855006E-1,1.9654113E-1,-2.8847915E-1,1.0668007E0,-5.199426E-1,-8.1680477E-1,-1.7681594E-1,4.0687963E-1,1.3974862E0,5.288091E-1,-2.2245719E-1,-7.399014E-1,-1.7701593E-1,-7.43445E-1,1.5317518E-1,1.4364979E0,2.448314E-2,2.131899E-1,-1.9169813E-1,1.6801931E-2,2.8321964E-1],"split_indices":[4,4,3,4,0,4,2,5,1,4,4,0,0,0,0,1,3,2,0,1,5,0,3,0,0,0,2,6,1,2,0,4,0,1,3,3,0,4,5,0,0,5,3,1,4,0,0,0,0,0,0,0,0,0,0,0,0,0,0,0,0,0,0,0,0,0,0,0,0,0,0],"split_type":[0,0,0,0,0,0,0,0,0,0,0,0,0,0,0,0,0,0,0,0,0,0,0,0,0,0,0,0,0,0,0,0,0,0,0,0,0,0,0,0,0,0,0,0,0,0,0,0,0,0,0,0,0,0,0,0,0,0,0,0,0,0,0,0,0,0,0,0,0,0,0],"sum_hessian":[1.224E3,1.205E3,1.9E1,1.11E3,9.5E1,4E0,1.5E1,1.064E3,4.6E1,3.4E1,6.1E1,3E0,1E0,1.4E1,1E0,1.047E3,1.7E1,7E0,3.9E1,1.3E1,2.1E1,2E0,5.9E1,1E0,2E0,2E0,1.2E1,2.57E2,7.9E2,1.5E1,2E0,6E0,1E0,4E0,3.5E1,1.2E1,1E0,1.7E1,4E0,1E0,1E0,1E1,4.9E1,7E0,5E0,2.55E2,2E0,2.16E2,5.74E2,6E0,9E0,4E0,2E0,2E0,2E0,2.4E1,1.1E1,9E0,3E0,1.3E1,4E0,2E0,2E0,9E0,1E0,1E0,4.8E1,2E0,5E0,1E0,4E0],"tree_param":{"num_deleted":"0","num_feature":"7","num_nodes":"71","size_leaf_vector":"1"}},{"base_weights":[1.5718278E-2,2.5270972E-2,-1.6500608E0,-2.506179E-3,4.8825982E-1,-2.8895223E0,8.6800635E-1,3.3458978E-2,-8.296526E-1,7.189825E-1,-6.6758823E-1,-6.6451806E-1,-1.1507685E0,1.083923E-1,-1.9840318E-1,6.3303985E-2,-1.6537048E0,3.4268692E-1,3.0279942E0,-3.1482449E0,5.091023E-1,-2.7621505E-1,-2.2818089E-2,2.8499642E-2,9.175913E-1,9.811077E-2,-1.5050268E0,-6.0815066E-1,2.1790264E0,-2.2091854E0,-1.971606E-1,-2.3514807E0,5.0064236E-1,1.0856237E0,3.9762917E0,-1.8154278E-1,-1.1382694E0,1.5678644E0,-1.2063165E0,1.3841721E-3,1.09173E0,7.77519E-1,2.3682926E-2,-4.4514287E-2,3.9837536E-1,-6.857917E-1,-6.579311E-2,-3.140512E-1,6.2413734E-1,1.3614999E-1,8.784494E-1,-9.8267205E-2,-1.0130421E0,-4.7173578E-1,1.5700364E-1,-2.0518957E-1,-8.5297686E-1,5.2444005E-1,5.2876055E-2,4.088837E-1,3.8048744E-2,1.362745E0,2.5672877E-1,1.4140177E-1,5.078705E-1,-2.9572966E-2,-4.628113E-1],"categories":[],"categories_nodes":[],"categories_segments":[],"categories_sizes":[],"default_left":[0,0,0,0,0,0,0,0,0,0,0,0,0,0,0,0,0,0,0,0,0,0,0,0,0,0,0,0,0,0,0,0,0,0,0,0,0,0,0,0,0,0,0,0,0,0,0,0,0,0,0,0,0,0,0,0,0,0,0,0,0,0,0,0,0,0,0],"id":19,"left_children":[1,3,5,7,9,11,-1,13,15,17,19,21,-1,23,25,27,29,31,33,35,37,-1,-1,39,41,43,45,47,49,51,53,55,57,59,61,-1,-1,63,65,-1,-1,-1,-1,-1,-1,-1,-1,-1,-1,-1,-1,-1,-1,-1,-1,-1,-1,-1,-1,-1,-1,-1,-1,-1,-1,-1,-1],"loss_changes":[1.9534729E1,1.5678186E1,4.7780132E1,3.4268227E1,1.888093E1,1.0085079E1,0E0,1.9202625E1,3.5425144E1,4.9356865E1,3.663036E1,3.822564E-1,0E0,5.395581E1,1.0475433E2,3.5419853E1,1.9791481E1,2.288073E1,1.04188E1,4.2751923E0,1.8237324E1,0E0,0E0,6.561325E1,1.05096405E2,6.719037E1,4.9702377E1,2.4587582E1,6.4255505E0,3.8440437E1,8.750185E0,5.154419E-1,1.9520824E1,8.90718E-1,4.946808E0,0E0,0E0,2.4708748E-2,1.3384457E0,0E0,0E0,0E0,0E0,0E0,0E0,0E0,0E0,0E0,0E0,0E0,0E0,0E0,0E0,0E0,0E0,0E0,0E0,0E0,0E0,0E0,0E0,0E0,0E0,0E0,0E0,0E0,0E0],"parents":[2147483647,0,0,1,1,2,2,3,3,4,4,5,5,7,7,8,8,9,9,10,10,11,11,13,13,14,14,15,15,16,16,17,17,18,18,19,19,20,20,23,23,24,24,25,25,26,26,27,27,28,28,29,29,30,30,31,31,32,32,33,33,34,34,37,37,38,38],"right_children":[2,4,6,8,10,12,-1,14,16,18,20,22,-1,24,26,28,30,32,34,36,38,-1,-1,40,42,44,46,48,50,52,54,56,58,60,62,-1,-1,64,66,-1,-1,-1,-1,-1,-1,-1,-1,-1,-1,-1,-1,-1,-1,-1,-1,-1,-1,-1,-1,-1,-1,-1,-1,-1,-1,-1,-1],"split_conditions":[3.5499945E2,1.7139585E1,2.0188908E1,1.5856251E1,3.0065628E2,2.1E1,8.6800635E-1,5.7E0,1.6418526E1,2.5336256E2,3.0767078E2,6E0,-1.1507685E0,4.5999994E0,1.2752084E1,2.6E1,3.023185E2,1.0495713E1,2.4E1,2.9E1,1.879255E1,-2.7621505E-1,-2.2818089E-2,3.492742E1,1.7309973E1,1.0891666E1,1.2399999E1,2E0,1E-1,1.134222E2,1.9107151E1,1E1,5.9958736E1,2E1,3.5E1,-1.8154278E-1,-1.1382694E0,2.1E1,1.7E1,1.3841721E-3,1.09173E0,7.77519E-1,2.3682926E-2,-4.4514287E-2,3.9837536E-1,-6.857917E-1,-6.579311E-2,-3.140512E-1,6.2413734E-1,1.3614999E-1,8.784494E-1,-9.8267205E-2,-1.0130421E0,-4.7173578E-1,1.5700364E-1,-2.0518957E-1,-8.5297686E-1,5.2444005E-1,5.2876055E-2,4.088837E-1,3.8048744E-2,1.362745E0,2.5672877E-1,1.4140177E-1,5.078705E-1,-2.9572966E-2,-4.628113E-1],"split_indices":[6,3,5,3,6,0,0,4,5,6,6,0,0,4,3,1,6,5,0,0,5,0,0,5,5,3,4,4,4,6,5,0,6,1,0,0,0,0,0,0,0,0,0,0,0,0,0,0,0,0,0,0,0,0,0,0,0,0,0,0,0,0,0,0,0,0,0],"split_type":[0,0,0,0,0,0,0,0,0,0,0,0,0,0,0,0,0,0,0,0,0,0,0,0,0,0,0,0,0,0,0,0,0,0,0,0,0,0,0,0,0,0,0,0,0,0,0,0,0,0,0,0,0,0,0,0,0,0,0,0,0,0,0,0,0,0,0],"sum_hessian":[1.224E3,1.218E3,6E0,1.15E3,6.8E1,5E0,1E0,1.103E3,4.7E1,5.7E1,1.1E1,2E0,3E0,8.34E2,2.69E2,2.3E1,2.4E1,5E1,7E0,3E0,8E0,1E0,1E0,7.6E2,7.4E1,2.2E2,4.9E1,1.8E1,5E0,1.7E1,7E0,2E0,4.8E1,3E0,4E0,1E0,2E0,5E0,3E0,7.56E2,4E0,2.4E1,5E1,1.84E2,3.6E1,3E1,1.9E1,1.6E1,2E0,2E0,3E0,7E0,1E1,2E0,5E0,1E0,1E0,9E0,3.9E1,2E0,1E0,3E0,1E0,1E0,4E0,1E0,2E0],"tree_param":{"num_deleted":"0","num_feature":"7","num_nodes":"67","size_leaf_vector":"1"}},{"base_weights":[1.2011497E-2,2.6393391E-2,-8.5581726E-1,8.811271E-3,1.522756E0,-2.3103564E0,-3.4778523E-1,2.2745557E-2,-1.8268487E0,-2.9615235E-1,3.383972E0,-2.94964E0,3.7016775E-2,-1.3832715E-1,-5.2344847E-1,-2.4934186E-2,6.174002E-1,5.112721E-1,-1.1398801E0,-5.577365E-1,5.3469104E-1,1.4397557E-1,1.3953527E0,-2.4936208E-1,-1.0136147E0,-3.7103873E-1,2.7485964E-1,-3.5167187E-2,2.2190335E0,4.3157876E-1,3.6157212E0,6.543658E-1,-1.329099E0,-3.4098864E-1,4.9635246E-1,-7.208691E-2,1.3687593E-1,-1.0913855E0,7.038042E-2,6.8077627E-3,-1.0973439E-1,5.1192142E-2,1.5618908E0,9.1029215E-1,7.905406E-2,2.0146813E0,-2.068207E-1,-1.0327063E-1,-4.9482396E-1,-4.0533537E-1,-7.868386E-3,-1.2476554E-1,2.346551E-1],"categories":[],"categories_nodes":[],"categories_segments":[],"categories_sizes":[],"default_left":[0,0,0,0,0,0,0,0,0,0,0,0,0,0,0,0,0,0,0,0,0,0,0,0,0,0,0,0,0,0,0,0,0,0,0,0,0,0,0,0,0,0,0,0,0,0,0,0,0,0,0,0,0],"id":20,"left_children":[1,3,5,7,9,11,13,15,17,19,21,23,-1,25,-1,27,29,31,-1,-1,33,35,-1,-1,-1,37,-1,39,41,43,45,-1,47,-1,-1,-1,-1,49,51,-1,-1,-1,-1,-1,-1,-1,-1,-1,-1,-1,-1,-1,-1],"loss_changes":[1.531184E1,3.1715513E1,1.3975539E1,3.0556835E1,4.8397507E1,8.143223E0,4.4405937E0,3.3613678E1,4.3455414E1,1.1382718E1,2.8070488E1,8.2746124E-1,0E0,4.020951E0,0E0,2.529089E1,4.7468945E1,1.8265667E1,0E0,0E0,1.3109997E1,4.6962506E-1,0E0,0E0,0E0,4.210485E0,0E0,2.0935692E1,2.97071E1,3.594439E1,7.135665E1,0E0,3.786111E-1,0E0,0E0,0E0,0E0,1.3478422E0,3.440427E0,0E0,0E0,0E0,0E0,0E0,0E0,0E0,0E0,0E0,0E0,0E0,0E0,0E0,0E0],"parents":[2147483647,0,0,1,1,2,2,3,3,4,4,5,5,6,6,7,7,8,8,9,9,10,10,11,11,13,13,15,15,16,16,17,17,20,20,21,21,25,25,27,27,28,28,29,29,30,30,32,32,37,37,38,38],"right_children":[2,4,6,8,10,12,14,16,18,20,22,24,-1,26,-1,28,30,32,-1,-1,34,36,-1,-1,-1,38,-1,40,42,44,46,-1,48,-1,-1,-1,-1,50,52,-1,-1,-1,-1,-1,-1,-1,-1,-1,-1,-1,-1,-1,-1],"split_conditions":[2.18E1,3.8275295E1,4.7979164E0,3.564727E1,2.8416376E2,3.1500004E1,5E1,1.1400001E1,5.7E0,1E1,2.3E1,3E0,3.7016775E-2,3.8E1,-5.2344847E-1,3.492742E1,3.6E1,3.91875E0,-1.1398801E0,-5.577365E-1,2.6090353E2,1.5E1,1.3953527E0,-2.4936208E-1,-1.0136147E0,2.3323177E2,2.7485964E-1,5.7E0,3E1,1.17E1,1.7699999E1,6.543658E-1,2.2E1,-3.4098864E-1,4.9635246E-1,-7.208691E-2,1.3687593E-1,2.7E1,3.163087E1,6.8077627E-3,-1.0973439E-1,5.1192142E-2,1.5618908E0,9.1029215E-1,7.905406E-2,2.0146813E0,-2.068207E-1,-1.0327063E-1,-4.9482396E-1,-4.0533537E-1,-7.868386E-3,-1.2476554E-1,2.346551E-1],"split_indices":[4,5,3,5,6,4,2,4,4,1,2,0,0,0,0,5,1,3,0,0,6,0,0,0,0,6,0,4,1,4,4,0,0,0,0,0,0,1,5,0,0,0,0,0,0,0,0,0,0,0,0,0,0],"split_type":[0,0,0,0,0,0,0,0,0,0,0,0,0,0,0,0,0,0,0,0,0,0,0,0,0,0,0,0,0,0,0,0,0,0,0,0,0,0,0,0,0,0,0,0,0,0,0,0,0,0,0,0,0],"sum_hessian":[1.224E3,1.205E3,1.9E1,1.192E3,1.3E1,4E0,1.5E1,1.184E3,8E0,7E0,6E0,3E0,1E0,1.4E1,1E0,1.097E3,8.7E1,4E0,4E0,2E0,5E0,2E0,4E0,1E0,2E0,1.2E1,2E0,1.093E3,4E0,8.3E1,4E0,2E0,2E0,2E0,3E0,1E0,1E0,4E0,8E0,9.31E2,1.62E2,3E0,1E0,4E0,7.9E1,2E0,2E0,1E0,1E0,3E0,1E0,5E0,3E0],"tree_param":{"num_deleted":"0","num_feature":"7","num_nodes":"53","size_leaf_vector":"1"}},{"base_weights":[1.0451951E-2,-8.799163E-1,2.296296E-2,-1.2715109E-1,-1.1017555E0,-8.0884665E-2,1.3460876E-1,1.5086237E-1,-1.8588074E-1,-3.7316835E-1,-1.3841089E0,-6.0938033E-3,-1.1224695E0,5.4876097E-2,2.1652973E0,1.2163693E-2,5.2235823E-2,-2.3912396E-1,1.7513256E-1,-4.6761924E-1,-1.5458651E-1,-2.9759064E-2,1.3808326E0,-2.6393948E0,2.4539901E-1,1.6916296E-1,-6.894821E-1,4.764174E0,8.929576E-1,6.5252304E-2,1.3557351E-2,2.442001E-3,-3.132202E0,-3.162619E0,2.4415731E-1,-2.2577615E0,1.4816419E0,9.1725206E-1,7.590784E-2,-2.8878205E0,-3.8389212E-1,6.149919E0,8.6654025E-1,-6.173754E-1,2.4804626E0,9.880897E-2,-7.5151354E-2,-1.6190988E-1,-1.0628288E0,6.974566E-2,-1.1720244E0,-8.395269E-1,6.573475E-1,-1.0276852E-2,-1.341811E0,5.291982E-1,-4.130459E-1,4.6168593E-1,-1.70978E-2,-4.1050828E-1,5.588082E-2,-1.4938672E0,-3.0360776E-1,1.332176E-2,-6.499176E-1,2.0833223E0,4.4579518E-1,6.59935E-2,3.2394964E-1,2.4782868E-1,-4.4303805E-1,1.5788502E0,-7.245804E-2],"categories":[],"categories_nodes":[],"categories_segments":[],"categories_sizes":[],"default_left":[0,0,0,0,0,0,0,0,0,0,0,0,0,0,0,0,0,0,0,0,0,0,0,0,0,0,0,0,0,0,0,0,0,0,0,0,0,0,0,0,0,0,0,0,0,0,0,0,0,0,0,0,0,0,0,0,0,0,0,0,0,0,0,0,0,0,0,0,0,0,0,0,0],"id":21,"left_children":[1,3,5,7,9,11,13,15,-1,17,19,21,23,25,27,-1,-1,-1,29,-1,-1,31,-1,33,35,37,39,41,43,-1,-1,45,47,49,51,53,55,57,59,61,63,65,67,69,71,-1,-1,-1,-1,-1,-1,-1,-1,-1,-1,-1,-1,-1,-1,-1,-1,-1,-1,-1,-1,-1,-1,-1,-1,-1,-1,-1,-1],"loss_changes":[1.3665976E1,2.6987896E0,1.4028217E1,7.780152E-1,2.1578426E0,4.883711E1,9.4275986E1,3.2027662E-3,0E0,1.3017497E0,5.622387E-1,6.405204E1,8.779578E1,4.7926178E1,6.849219E1,0E0,0E0,0E0,6.6894144E-3,0E0,0E0,5.8350395E1,0E0,3.0947083E1,7.451902E1,3.3974785E1,4.927565E1,3.247873E1,3.9893955E1,0E0,0E0,4.7962082E1,4.474251E0,4.3856964E1,2.9827414E1,3.9246254E1,1.5342182E1,3.27949E1,6.959029E1,3.0273575E1,5.1246746E1,8.207916E0,1.7617941E-1,1.2384877E1,6.1859795E1,0E0,0E0,0E0,0E0,0E0,0E0,0E0,0E0,0E0,0E0,0E0,0E0,0E0,0E0,0E0,0E0,0E0,0E0,0E0,0E0,0E0,0E0,0E0,0E0,0E0,0E0,0E0,0E0],"parents":[2147483647,0,0,1,1,2,2,3,3,4,4,5,5,6,6,7,7,9,9,10,10,11,11,12,12,13,13,14,14,18,18,21,21,23,23,24,24,25,25,26,26,27,27,28,28,31,31,32,32,33,33,34,34,35,35,36,36,37,37,38,38,39,39,40,40,41,41,42,42,43,43,44,44],"right_children":[2,4,6,8,10,12,14,16,-1,18,20,22,24,26,28,-1,-1,-1,30,-1,-1,32,-1,34,36,38,40,42,44,-1,-1,46,48,50,52,54,56,58,60,62,64,66,68,70,72,-1,-1,-1,-1,-1,-1,-1,-1,-1,-1,-1,-1,-1,-1,-1,-1,-1,-1,-1,-1,-1,-1,-1,-1,-1,-1,-1,-1],"split_conditions":[2E0,1.2801337E2,1.749615E1,3E0,2.1999998E0,1.710284E1,3.135017E2,5.4083333E0,-1.8588074E-1,5.670832E0,3.403095E1,1.7076298E1,1.516033E2,3E1,1.835647E1,1.2163693E-2,5.2235823E-2,-2.3912396E-1,2E0,-4.6761924E-1,-1.5458651E-1,4.4E1,1.3808326E0,3.4E1,2E1,1.858451E1,1.5E1,3E0,2.8E1,6.5252304E-2,1.3557351E-2,1.2280643E2,1.5E1,1.7E1,1.7114204E1,2.604094E2,3.1934476E2,2.4E1,1.9239801E1,2.2102048E2,2.9266867E2,1.033125E1,1.8E1,7E-1,1.4693751E1,9.880897E-2,-7.5151354E-2,-1.6190988E-1,-1.0628288E0,6.974566E-2,-1.1720244E0,-8.395269E-1,6.573475E-1,-1.0276852E-2,-1.341811E0,5.291982E-1,-4.130459E-1,4.6168593E-1,-1.70978E-2,-4.1050828E-1,5.588082E-2,-1.4938672E0,-3.0360776E-1,1.332176E-2,-6.499176E-1,2.0833223E0,4.4579518E-1,6.59935E-2,3.2394964E-1,2.4782868E-1,-4.4303805E-1,1.5788502E0,-7.245804E-2],"split_indices":[1,6,5,2,4,5,6,3,0,3,5,5,6,0,5,0,0,0,0,0,0,2,0,2,0,5,2,4,0,0,0,6,0,0,5,6,6,2,5,6,6,3,0,4,3,0,0,0,0,0,0,0,0,0,0,0,0,0,0,0,0,0,0,0,0,0,0,0,0,0,0,0,0],"split_type":[0,0,0,0,0,0,0,0,0,0,0,0,0,0,0,0,0,0,0,0,0,0,0,0,0,0,0,0,0,0,0,0,0,0,0,0,0,0,0,0,0,0,0,0,0,0,0,0,0,0,0,0,0,0,0,0,0,0,0,0,0,0,0,0,0,0,0,0,0,0,0,0,0],"sum_hessian":[1.224E3,1.6E1,1.208E3,4E0,1.2E1,6.26E2,5.82E2,3E0,1E0,4E0,8E0,5.85E2,4.1E1,5.61E2,2.1E1,1E0,2E0,2E0,2E0,6E0,2E0,5.83E2,2E0,1.9E1,2.2E1,4.87E2,7.4E1,6E0,1.5E1,1E0,1E0,5.78E2,5E0,1.6E1,3E0,7E0,1.5E1,5.3E1,4.34E2,8E0,6.6E1,4E0,2E0,8E0,7E0,2.52E2,3.26E2,1E0,4E0,3E0,1.3E1,1E0,2E0,4E0,3E0,1.4E1,1E0,3.2E1,2.1E1,3E1,4.04E2,3E0,5E0,5.4E1,1.2E1,3E0,1E0,1E0,1E0,3E0,5E0,3E0,4E0],"tree_param":{"num_deleted":"0","num_feature":"7","num_nodes":"73","size_leaf_vector":"1"}},{"base_weights":[6.207376E-3,-7.0390254E-3,8.4737575E-1,3.7193608E-2,-3.1897962E-1,1.4996506E0,